<?xml version="1.0"?>
<opencv_storage>
<cascade>
  <stageType>BOOST</stageType>
  <featureType>HAAR</featureType>
  <height>24</height>
  <width>24</width>
  <stageParams>
    <boostType>GAB</boostType>
    <minHitRate>9.9500000476837158e-01</minHitRate>
    <maxFalseAlarm>5.0000000000000000e-01</maxFalseAlarm>
    <weightTrimRate>9.4999998807907104e-01</weightTrimRate>
    <maxDepth>1</maxDepth>
    <maxWeakCount>100</maxWeakCount></stageParams>
  <featureParams>
    <maxCatCount>0</maxCatCount>
    <featSize>1</featSize>
    <mode>BASIC</mode></featureParams>
  <stageNum>20</stageNum>
  <stages>
    <!-- stage 0 -->
    <_>
      <maxWeakCount>11</maxWeakCount>
      <stageThreshold>-7.5727969408035278e-01</stageThreshold>
      <weakClassifiers>
        <_>
          <internalNodes>
            0 -1 344 -9.5673365285620093e-04</internalNodes>
          <leafValues>
            -3.8009050488471985e-01 7.8804510831832886e-01</leafValues></_>
        <_>
          <internalNodes>
            0 -1 344 5.1818217616528273e-04</internalNodes>
          <leafValues>
            4.7341129183769226e-01 -6.5567904710769653e-01</leafValues></_>
        <_>
          <internalNodes>
            0 -1 83 -1.5899084508419037e-02</internalNodes>
          <leafValues>
            5.9306073188781738e-01 -3.0293965339660645e-01</leafValues></_>
        <_>
          <internalNodes>
            0 -1 293 -6.3641086220741272e-02</internalNodes>
          <leafValues>
            5.2608126401901245e-01 -2.7780836820602417e-01</leafValues></_>
        <_>
          <internalNodes>
            0 -1 639 -5.0282600568607450e-04</internalNodes>
          <leafValues>
            -6.6438400745391846e-01 1.9090805947780609e-01</leafValues></_>
        <_>
          <internalNodes>
            0 -1 639 3.4961797064170241e-04</internalNodes>
          <leafValues>
            2.5971996784210205e-01 -6.6601902246475220e-01</leafValues></_>
        <_>
          <internalNodes>
            0 -1 680 1.7724268138408661e-02</internalNodes>
          <leafValues>
            -2.3408277332782745e-01 6.1172646284103394e-01</leafValues></_>
        <_>
          <internalNodes>
            0 -1 741 -4.7207338502630591e-04</internalNodes>
          <leafValues>
            -6.2359130382537842e-01 2.0630222558975220e-01</leafValues></_>
        <_>
          <internalNodes>
            0 -1 741 4.9834745004773140e-04</internalNodes>
          <leafValues>
            1.8039189279079437e-01 -6.2800621986389160e-01</leafValues></_>
        <_>
          <internalNodes>
            0 -1 131 -5.6470889830961823e-04</internalNodes>
          <leafValues>
            -6.4031338691711426e-01 1.3915565609931946e-01</leafValues></_>
        <_>
          <internalNodes>
            0 -1 130 -4.8008083831518888e-04</internalNodes>
          <leafValues>
            -5.7102060317993164e-01 1.7214223742485046e-01</leafValues></_></weakClassifiers></_>
    <!-- stage 1 -->
    <_>
      <maxWeakCount>27</maxWeakCount>
      <stageThreshold>-6.9975399971008301e-01</stageThreshold>
      <weakClassifiers>
        <_>
          <internalNodes>
            0 -1 134 -4.5903306454420090e-04</internalNodes>
          <leafValues>
            5.2297938615083694e-02 7.7987122535705566e-01</leafValues></_>
        <_>
          <internalNodes>
            0 -1 677 1.5119654126465321e-02</internalNodes>
          <leafValues>
            -7.0583738386631012e-02 6.3776701688766479e-01</leafValues></_>
        <_>
          <internalNodes>
            0 -1 175 -5.6012271670624614e-04</internalNodes>
          <leafValues>
            -5.7034236192703247e-01 2.2421193122863770e-01</leafValues></_>
        <_>
          <internalNodes>
            0 -1 177 -1.6110275464598089e-04</internalNodes>
          <leafValues>
            -4.6836614608764648e-01 2.2932237386703491e-01</leafValues></_>
        <_>
          <internalNodes>
            0 -1 177 2.9321509646251798e-04</internalNodes>
          <leafValues>
            1.7804694175720215e-01 -5.4345571994781494e-01</leafValues></_>
        <_>
          <internalNodes>
            0 -1 133 -3.4423719625920057e-04</internalNodes>
          <leafValues>
            -4.5990180969238281e-01 1.9181846082210541e-01</leafValues></_>
        <_>
          <internalNodes>
            0 -1 81 -1.5934653580188751e-02</internalNodes>
          <leafValues>
            4.3357446789741516e-01 -2.1026320755481720e-01</leafValues></_>
        <_>
          <internalNodes>
            0 -1 556 -2.9228886705823243e-04</internalNodes>
          <leafValues>
            -5.3072863817214966e-01 1.3659009337425232e-01</leafValues></_>
        <_>
          <internalNodes>
            0 -1 556 1.2474809773266315e-04</internalNodes>
          <leafValues>
            2.0541886985301971e-01 -4.5701402425765991e-01</leafValues></_>
        <_>
          <internalNodes>
            0 -1 436 -1.0648767463862896e-02</internalNodes>
          <leafValues>
            2.1221002936363220e-01 -3.8770857453346252e-01</leafValues></_>
        <_>
          <internalNodes>
            0 -1 775 1.3356679119169712e-04</internalNodes>
          <leafValues>
            1.9056750833988190e-01 -4.0493929386138916e-01</leafValues></_>
        <_>
          <internalNodes>
            0 -1 384 4.5503283035941422e-04</internalNodes>
          <leafValues>
            1.2317378073930740e-01 -4.9043801426887512e-01</leafValues></_>
        <_>
          <internalNodes>
            0 -1 665 -1.8862843513488770e-02</internalNodes>
          <leafValues>
            5.5965518951416016e-01 -1.2228669226169586e-01</leafValues></_>
        <_>
          <internalNodes>
            0 -1 384 -3.5315009881742299e-04</internalNodes>
          <leafValues>
            -4.3474763631820679e-01 1.5989163517951965e-01</leafValues></_>
        <_>
          <internalNodes>
            0 -1 721 -7.9675335437059402e-03</internalNodes>
          <leafValues>
            5.4971981048583984e-01 -1.1964151263237000e-01</leafValues></_>
        <_>
          <internalNodes>
            0 -1 67 -2.2990047931671143e-02</internalNodes>
          <leafValues>
            -5.7645922899246216e-01 1.0806391388177872e-01</leafValues></_>
        <_>
          <internalNodes>
            0 -1 754 3.3810216700658202e-04</internalNodes>
          <leafValues>
            1.3077069818973541e-01 -3.9679694175720215e-01</leafValues></_>
        <_>
          <internalNodes>
            0 -1 418 -2.2403886541724205e-02</internalNodes>
          <leafValues>
            4.4613337516784668e-01 -1.3702847063541412e-01</leafValues></_>
        <_>
          <internalNodes>
            0 -1 794 -4.3862976599484682e-04</internalNodes>
          <leafValues>
            -3.9920639991760254e-01 1.3514707982540131e-01</leafValues></_>
        <_>
          <internalNodes>
            0 -1 268 -3.1771583016961813e-03</internalNodes>
          <leafValues>
            5.0913953781127930e-01 -1.1036694049835205e-01</leafValues></_>
        <_>
          <internalNodes>
            0 -1 796 1.2774944771081209e-03</internalNodes>
          <leafValues>
            1.4838261902332306e-01 -4.0984177589416504e-01</leafValues></_>
        <_>
          <internalNodes>
            0 -1 797 -6.9795420859009027e-04</internalNodes>
          <leafValues>
            -5.1434516906738281e-01 9.8041541874408722e-02</leafValues></_>
        <_>
          <internalNodes>
            0 -1 428 1.9721859693527222e-01</internalNodes>
          <leafValues>
            8.1484228372573853e-02 -6.3334167003631592e-01</leafValues></_>
        <_>
          <internalNodes>
            0 -1 400 -3.6254907026886940e-03</internalNodes>
          <leafValues>
            3.6323904991149902e-01 -1.3911725580692291e-01</leafValues></_>
        <_>
          <internalNodes>
            0 -1 753 -4.9701938405632973e-04</internalNodes>
          <leafValues>
            -5.1436376571655273e-01 1.0057427734136581e-01</leafValues></_>
        <_>
          <internalNodes>
            0 -1 547 -6.5185232087969780e-03</internalNodes>
          <leafValues>
            4.1191640496253967e-01 -1.2993901968002319e-01</leafValues></_>
        <_>
          <internalNodes>
            0 -1 250 -1.1369936401024461e-03</internalNodes>
          <leafValues>
            -3.8619068264961243e-01 1.2617553770542145e-01</leafValues></_></weakClassifiers></_>
    <!-- stage 2 -->
    <_>
      <maxWeakCount>34</maxWeakCount>
      <stageThreshold>-6.4021319150924683e-01</stageThreshold>
      <weakClassifiers>
        <_>
          <internalNodes>
            0 -1 610 -4.1887481347657740e-04</internalNodes>
          <leafValues>
            5.2631579339504242e-02 7.7081716060638428e-01</leafValues></_>
        <_>
          <internalNodes>
            0 -1 192 -6.8925008177757263e-02</internalNodes>
          <leafValues>
            5.4830747842788696e-01 -1.2096063047647476e-01</leafValues></_>
        <_>
          <internalNodes>
            0 -1 56 -1.0712099261581898e-02</internalNodes>
          <leafValues>
            5.4632627964019775e-01 -1.7825302481651306e-01</leafValues></_>
        <_>
          <internalNodes>
            0 -1 591 -3.1352418591268361e-04</internalNodes>
          <leafValues>
            -5.7430356740951538e-01 2.0026087760925293e-01</leafValues></_>
        <_>
          <internalNodes>
            0 -1 709 -2.1875795209780335e-04</internalNodes>
          <leafValues>
            -5.0095939636230469e-01 1.1278382688760757e-01</leafValues></_>
        <_>
          <internalNodes>
            0 -1 709 2.3240970040205866e-04</internalNodes>
          <leafValues>
            1.8178613483905792e-01 -4.5449852943420410e-01</leafValues></_>
        <_>
          <internalNodes>
            0 -1 719 -4.4566644355654716e-03</internalNodes>
          <leafValues>
            5.0346374511718750e-01 -1.3421131670475006e-01</leafValues></_>
        <_>
          <internalNodes>
            0 -1 135 -3.8218946428969502e-04</internalNodes>
          <leafValues>
            -4.4618773460388184e-01 1.5548290312290192e-01</leafValues></_>
        <_>
          <internalNodes>
            0 -1 176 -1.4241033932194114e-04</internalNodes>
          <leafValues>
            -3.7109792232513428e-01 1.5808005630970001e-01</leafValues></_>
        <_>
          <internalNodes>
            0 -1 43 -3.2740931957960129e-02</internalNodes>
          <leafValues>
            3.7015095353126526e-01 -1.7055051028728485e-01</leafValues></_>
        <_>
          <internalNodes>
            0 -1 675 1.2709753587841988e-02</internalNodes>
          <leafValues>
            -1.6390620172023773e-01 3.5416960716247559e-01</leafValues></_>
        <_>
          <internalNodes>
            0 -1 575 -1.8111206009052694e-04</internalNodes>
          <leafValues>
            -3.6903563141822815e-01 1.5761151909828186e-01</leafValues></_>
        <_>
          <internalNodes>
            0 -1 582 3.0000858008861542e-02</internalNodes>
          <leafValues>
            -1.7876034975051880e-01 3.2796368002891541e-01</leafValues></_>
        <_>
          <internalNodes>
            0 -1 667 4.9914699047803879e-03</internalNodes>
          <leafValues>
            -1.4382401108741760e-01 3.6503332853317261e-01</leafValues></_>
        <_>
          <internalNodes>
            0 -1 308 -3.4478213638067245e-04</internalNodes>
          <leafValues>
            -4.1779655218124390e-01 1.4035257697105408e-01</leafValues></_>
        <_>
          <internalNodes>
            0 -1 308 4.2310295975767076e-04</internalNodes>
          <leafValues>
            1.0064136236906052e-01 -5.1300394535064697e-01</leafValues></_>
        <_>
          <internalNodes>
            0 -1 699 -3.2327501103281975e-03</internalNodes>
          <leafValues>
            4.1826844215393066e-01 -1.5311035513877869e-01</leafValues></_>
        <_>
          <internalNodes>
            0 -1 214 -1.8692567944526672e-01</internalNodes>
          <leafValues>
            2.5236633419990540e-01 -2.0825536549091339e-01</leafValues></_>
        <_>
          <internalNodes>
            0 -1 55 1.0568822734057903e-02</internalNodes>
          <leafValues>
            -1.1997873336076736e-01 4.5401766896247864e-01</leafValues></_>
        <_>
          <internalNodes>
            0 -1 336 -1.8862470984458923e-02</internalNodes>
          <leafValues>
            7.2551983594894409e-01 -6.4449883997440338e-02</leafValues></_>
        <_>
          <internalNodes>
            0 -1 371 -4.7489181160926819e-03</internalNodes>
          <leafValues>
            3.7395352125167847e-01 -1.2567651271820068e-01</leafValues></_>
        <_>
          <internalNodes>
            0 -1 142 -1.7914640193339437e-04</internalNodes>
          <leafValues>
            -3.3467674255371094e-01 1.5191775560379028e-01</leafValues></_>
        <_>
          <internalNodes>
            0 -1 352 -3.5315312445163727e-02</internalNodes>
          <leafValues>
            4.8299285769462585e-01 -1.1255124956369400e-01</leafValues></_>
        <_>
          <internalNodes>
            0 -1 471 -2.4946536868810654e-03</internalNodes>
          <leafValues>
            4.4231233000755310e-01 -1.1795710027217865e-01</leafValues></_>
        <_>
          <internalNodes>
            0 -1 652 -2.8874821146018803e-04</internalNodes>
          <leafValues>
            -4.2765966057777405e-01 1.3125406205654144e-01</leafValues></_>
        <_>
          <internalNodes>
            0 -1 443 7.7718929387629032e-03</internalNodes>
          <leafValues>
            -1.3046826422214508e-01 4.2372331023216248e-01</leafValues></_>
        <_>
          <internalNodes>
            0 -1 473 -1.8355275969952345e-03</internalNodes>
          <leafValues>
            5.2087336778640747e-01 -9.3726634979248047e-02</leafValues></_>
        <_>
          <internalNodes>
            0 -1 454 1.3080699136480689e-04</internalNodes>
          <leafValues>
            1.7544713616371155e-01 -2.8763109445571899e-01</leafValues></_>
        <_>
          <internalNodes>
            0 -1 68 -1.1121481657028198e-02</internalNodes>
          <leafValues>
            3.9292052388191223e-01 -1.2392180413007736e-01</leafValues></_>
        <_>
          <internalNodes>
            0 -1 277 -2.2168876603245735e-04</internalNodes>
          <leafValues>
            -3.5262268781661987e-01 1.4620471000671387e-01</leafValues></_>
        <_>
          <internalNodes>
            0 -1 614 -3.2512736506760120e-03</internalNodes>
          <leafValues>
            3.6641892790794373e-01 -1.2740615010261536e-01</leafValues></_>
        <_>
          <internalNodes>
            0 -1 802 -4.8899801913648844e-04</internalNodes>
          <leafValues>
            -3.8805836439132690e-01 1.2107036262750626e-01</leafValues></_>
        <_>
          <internalNodes>
            0 -1 273 -2.0794354379177094e-02</internalNodes>
          <leafValues>
            5.4751414060592651e-01 -8.9029550552368164e-02</leafValues></_>
        <_>
          <internalNodes>
            0 -1 802 3.6080897552892566e-04</internalNodes>
          <leafValues>
            1.3396891951560974e-01 -4.0233880281448364e-01</leafValues></_></weakClassifiers></_>
    <!-- stage 3 -->
    <_>
      <maxWeakCount>35</maxWeakCount>
      <stageThreshold>-5.6932729482650757e-01</stageThreshold>
      <weakClassifiers>
        <_>
          <internalNodes>
            0 -1 691 5.4436980281025171e-04</internalNodes>
          <leafValues>
            7.7207714319229126e-01 5.9859156608581543e-02</leafValues></_>
        <_>
          <internalNodes>
            0 -1 690 -1.7850080621428788e-04</internalNodes>
          <leafValues>
            -3.6264336109161377e-01 4.0127137303352356e-01</leafValues></_>
        <_>
          <internalNodes>
            0 -1 202 2.3730419576168060e-02</internalNodes>
          <leafValues>
            -3.0846077203750610e-01 3.8697791099548340e-01</leafValues></_>
        <_>
          <internalNodes>
            0 -1 307 2.6608587359078228e-04</internalNodes>
          <leafValues>
            1.5323762595653534e-01 -5.6529223918914795e-01</leafValues></_>
        <_>
          <internalNodes>
            0 -1 278 3.1108380062505603e-04</internalNodes>
          <leafValues>
            1.4697940647602081e-01 -5.5422234535217285e-01</leafValues></_>
        <_>
          <internalNodes>
            0 -1 249 4.1289845830760896e-04</internalNodes>
          <leafValues>
            1.4037334918975830e-01 -4.4045779109001160e-01</leafValues></_>
        <_>
          <internalNodes>
            0 -1 686 7.0759672671556473e-03</internalNodes>
          <leafValues>
            -1.9968639314174652e-01 3.2718652486801147e-01</leafValues></_>
        <_>
          <internalNodes>
            0 -1 466 -2.2292219102382660e-02</internalNodes>
          <leafValues>
            4.6021905541419983e-01 -1.5365386009216309e-01</leafValues></_>
        <_>
          <internalNodes>
            0 -1 612 -6.0137617401778698e-04</internalNodes>
          <leafValues>
            -3.4159421920776367e-01 1.9171322882175446e-01</leafValues></_>
        <_>
          <internalNodes>
            0 -1 520 2.3747821978759021e-04</internalNodes>
          <leafValues>
            9.3954190611839294e-02 -4.4099748134613037e-01</leafValues></_>
        <_>
          <internalNodes>
            0 -1 79 -1.0309061966836452e-02</internalNodes>
          <leafValues>
            3.2604637742042542e-01 -1.7349216341972351e-01</leafValues></_>
        <_>
          <internalNodes>
            0 -1 782 -6.2004430219531059e-03</internalNodes>
          <leafValues>
            -5.2553671598434448e-01 9.7261227667331696e-02</leafValues></_>
        <_>
          <internalNodes>
            0 -1 407 -3.6140449345111847e-02</internalNodes>
          <leafValues>
            4.9316361546516418e-01 -1.1979788541793823e-01</leafValues></_>
        <_>
          <internalNodes>
            0 -1 493 6.8138400092720985e-04</internalNodes>
          <leafValues>
            1.0392682254314423e-01 -5.5483949184417725e-01</leafValues></_>
        <_>
          <internalNodes>
            0 -1 321 -6.0582466423511505e-02</internalNodes>
          <leafValues>
            2.5916367769241333e-01 -2.1273808181285858e-01</leafValues></_>
        <_>
          <internalNodes>
            0 -1 306 6.2690470367670059e-03</internalNodes>
          <leafValues>
            -1.2331046909093857e-01 4.0186986327171326e-01</leafValues></_>
        <_>
          <internalNodes>
            0 -1 133 3.3772361348383129e-04</internalNodes>
          <leafValues>
            1.2867359817028046e-01 -4.3245083093643188e-01</leafValues></_>
        <_>
          <internalNodes>
            0 -1 754 -3.2076882780529559e-04</internalNodes>
          <leafValues>
            -4.1292530298233032e-01 1.1077535897493362e-01</leafValues></_>
        <_>
          <internalNodes>
            0 -1 160 1.2163580395281315e-02</internalNodes>
          <leafValues>
            -1.0257378965616226e-01 4.8286271095275879e-01</leafValues></_>
        <_>
          <internalNodes>
            0 -1 753 1.2628771946765482e-04</internalNodes>
          <leafValues>
            1.5856389701366425e-01 -3.0281993746757507e-01</leafValues></_>
        <_>
          <internalNodes>
            0 -1 348 -7.1698741521686316e-04</internalNodes>
          <leafValues>
            -3.6165800690650940e-01 1.2830513715744019e-01</leafValues></_>
        <_>
          <internalNodes>
            0 -1 715 -3.5851323045790195e-03</internalNodes>
          <leafValues>
            3.7788987159729004e-01 -1.3330523669719696e-01</leafValues></_>
        <_>
          <internalNodes>
            0 -1 714 5.0733210518956184e-03</internalNodes>
          <leafValues>
            -1.1915824562311172e-01 4.8724472522735596e-01</leafValues></_>
        <_>
          <internalNodes>
            0 -1 712 2.3655490076635033e-04</internalNodes>
          <leafValues>
            1.5812367200851440e-01 -3.1972494721412659e-01</leafValues></_>
        <_>
          <internalNodes>
            0 -1 501 2.7377519756555557e-02</internalNodes>
          <leafValues>
            -6.5937913954257965e-02 7.4258095026016235e-01</leafValues></_>
        <_>
          <internalNodes>
            0 -1 71 -9.3902591615915298e-03</internalNodes>
          <leafValues>
            3.9622890949249268e-01 -1.0737775266170502e-01</leafValues></_>
        <_>
          <internalNodes>
            0 -1 786 5.4807635024189949e-04</internalNodes>
          <leafValues>
            1.1656298488378525e-01 -3.6049976944923401e-01</leafValues></_>
        <_>
          <internalNodes>
            0 -1 710 -2.5110272690653801e-04</internalNodes>
          <leafValues>
            -3.0885130167007446e-01 1.2946195900440216e-01</leafValues></_>
        <_>
          <internalNodes>
            0 -1 21 5.2925728261470795e-02</internalNodes>
          <leafValues>
            7.6258957386016846e-02 -5.0267165899276733e-01</leafValues></_>
        <_>
          <internalNodes>
            0 -1 456 1.9847578369081020e-04</internalNodes>
          <leafValues>
            1.1968696117401123e-01 -3.2025092840194702e-01</leafValues></_>
        <_>
          <internalNodes>
            0 -1 455 -2.5783860473893583e-04</internalNodes>
          <leafValues>
            -3.5081961750984192e-01 1.1058218032121658e-01</leafValues></_>
        <_>
          <internalNodes>
            0 -1 435 3.3765020780265331e-03</internalNodes>
          <leafValues>
            -1.1917257308959961e-01 3.6315944790840149e-01</leafValues></_>
        <_>
          <internalNodes>
            0 -1 441 -7.9727219417691231e-03</internalNodes>
          <leafValues>
            6.1505645513534546e-01 -6.5894179046154022e-02</leafValues></_>
        <_>
          <internalNodes>
            0 -1 392 3.5207331180572510e-02</internalNodes>
          <leafValues>
            -6.3128106296062469e-02 5.5816483497619629e-01</leafValues></_>
        <_>
          <internalNodes>
            0 -1 468 -6.9968346506357193e-03</internalNodes>
          <leafValues>
            4.3419802188873291e-01 -8.8106870651245117e-02</leafValues></_></weakClassifiers></_>
    <!-- stage 4 -->
    <_>
      <maxWeakCount>26</maxWeakCount>
      <stageThreshold>-5.8384722471237183e-01</stageThreshold>
      <weakClassifiers>
        <_>
          <internalNodes>
            0 -1 146 4.4553205370903015e-01</internalNodes>
          <leafValues>
            7.5912189483642578e-01 -4.5736435055732727e-01</leafValues></_>
        <_>
          <internalNodes>
            0 -1 728 1.2132043018937111e-02</internalNodes>
          <leafValues>
            -5.7709896937012672e-03 7.2661918401718140e-01</leafValues></_>
        <_>
          <internalNodes>
            0 -1 82 -1.4086982235312462e-02</internalNodes>
          <leafValues>
            4.3691334128379822e-01 -1.9254766404628754e-01</leafValues></_>
        <_>
          <internalNodes>
            0 -1 262 9.8262671381235123e-03</internalNodes>
          <leafValues>
            -1.3282704353332520e-01 5.6001847982406616e-01</leafValues></_>
        <_>
          <internalNodes>
            0 -1 698 5.0499988719820976e-03</internalNodes>
          <leafValues>
            -1.1426547914743423e-01 6.7704433202743530e-01</leafValues></_>
        <_>
          <internalNodes>
            0 -1 42 1.4701663516461849e-02</internalNodes>
          <leafValues>
            -1.6856379806995392e-01 4.3044057488441467e-01</leafValues></_>
        <_>
          <internalNodes>
            0 -1 261 -8.6888372898101807e-03</internalNodes>
          <leafValues>
            5.3215414285659790e-01 -1.3292628526687622e-01</leafValues></_>
        <_>
          <internalNodes>
            0 -1 156 -5.3682923316955566e-03</internalNodes>
          <leafValues>
            5.9940868616104126e-01 -9.6510924398899078e-02</leafValues></_>
        <_>
          <internalNodes>
            0 -1 159 2.3815741296857595e-03</internalNodes>
          <leafValues>
            -1.1847374588251114e-01 5.2719157934188843e-01</leafValues></_>
        <_>
          <internalNodes>
            0 -1 533 -2.5248439051210880e-03</internalNodes>
          <leafValues>
            6.7348319292068481e-01 -8.0596752464771271e-02</leafValues></_>
        <_>
          <internalNodes>
            0 -1 611 -3.3823074772953987e-04</internalNodes>
          <leafValues>
            -5.2509558200836182e-01 1.3365447521209717e-01</leafValues></_>
        <_>
          <internalNodes>
            0 -1 611 2.6462937239557505e-04</internalNodes>
          <leafValues>
            1.1728592962026596e-01 -5.3005111217498779e-01</leafValues></_>
        <_>
          <internalNodes>
            0 -1 534 3.0293106101453304e-03</internalNodes>
          <leafValues>
            -1.2872794270515442e-01 5.6878304481506348e-01</leafValues></_>
        <_>
          <internalNodes>
            0 -1 543 5.4478477686643600e-03</internalNodes>
          <leafValues>
            -2.5289678573608398e-01 2.2393222153186798e-01</leafValues></_>
        <_>
          <internalNodes>
            0 -1 437 -2.1655051968991756e-03</internalNodes>
          <leafValues>
            5.3837311267852783e-01 -1.1407304555177689e-01</leafValues></_>
        <_>
          <internalNodes>
            0 -1 389 -3.3822670578956604e-02</internalNodes>
          <leafValues>
            3.0719891190528870e-01 -1.6451324522495270e-01</leafValues></_>
        <_>
          <internalNodes>
            0 -1 655 1.2412091018632054e-04</internalNodes>
          <leafValues>
            1.5148641169071198e-01 -3.6207181215286255e-01</leafValues></_>
        <_>
          <internalNodes>
            0 -1 344 -2.0162909640930593e-04</internalNodes>
          <leafValues>
            -4.1834422945976257e-01 1.2546354532241821e-01</leafValues></_>
        <_>
          <internalNodes>
            0 -1 397 -7.6675135642290115e-03</internalNodes>
          <leafValues>
            4.9103152751922607e-01 -1.1679099500179291e-01</leafValues></_>
        <_>
          <internalNodes>
            0 -1 470 8.3124367520213127e-03</internalNodes>
          <leafValues>
            -1.1099689453840256e-01 5.9401923418045044e-01</leafValues></_>
        <_>
          <internalNodes>
            0 -1 344 2.2064647055231035e-04</internalNodes>
          <leafValues>
            1.4440754055976868e-01 -4.0376532077789307e-01</leafValues></_>
        <_>
          <internalNodes>
            0 -1 398 -4.9185706302523613e-03</internalNodes>
          <leafValues>
            5.7508087158203125e-01 -9.9075786769390106e-02</leafValues></_>
        <_>
          <internalNodes>
            0 -1 403 4.7368556261062622e-03</internalNodes>
          <leafValues>
            -7.9179540276527405e-02 6.3498157262802124e-01</leafValues></_>
        <_>
          <internalNodes>
            0 -1 232 -7.9171446850523353e-04</internalNodes>
          <leafValues>
            5.7151818275451660e-01 -7.1481168270111084e-02</leafValues></_>
        <_>
          <internalNodes>
            0 -1 65 -9.0207848697900772e-03</internalNodes>
          <leafValues>
            5.2143162488937378e-01 -8.9955784380435944e-02</leafValues></_>
        <_>
          <internalNodes>
            0 -1 34 3.4378170967102051e-01</internalNodes>
          <leafValues>
            7.0954024791717529e-02 -7.7920442819595337e-01</leafValues></_></weakClassifiers></_>
    <!-- stage 5 -->
    <_>
      <maxWeakCount>42</maxWeakCount>
      <stageThreshold>-5.7701957225799561e-01</stageThreshold>
      <weakClassifiers>
        <_>
          <internalNodes>
            0 -1 425 1.5130756655707955e-03</internalNodes>
          <leafValues>
            7.5534796714782715e-01 -3.8674034178256989e-02</leafValues></_>
        <_>
          <internalNodes>
            0 -1 99 -6.7775407806038857e-03</internalNodes>
          <leafValues>
            4.8008257150650024e-01 -1.7352513968944550e-01</leafValues></_>
        <_>
          <internalNodes>
            0 -1 283 -1.1330292373895645e-01</internalNodes>
          <leafValues>
            5.7225596904754639e-01 -1.2589660286903381e-01</leafValues></_>
        <_>
          <internalNodes>
            0 -1 264 -6.3921555876731873e-02</internalNodes>
          <leafValues>
            3.6467704176902771e-01 -2.2095438838005066e-01</leafValues></_>
        <_>
          <internalNodes>
            0 -1 749 -6.5213092602789402e-04</internalNodes>
          <leafValues>
            -5.1925253868103027e-01 1.2846353650093079e-01</leafValues></_>
        <_>
          <internalNodes>
            0 -1 204 1.3514325022697449e-02</internalNodes>
          <leafValues>
            -2.1433679759502411e-01 3.3521929383277893e-01</leafValues></_>
        <_>
          <internalNodes>
            0 -1 247 -4.8319576308131218e-04</internalNodes>
          <leafValues>
            -5.2604293823242188e-01 1.1167725175619125e-01</leafValues></_>
        <_>
          <internalNodes>
            0 -1 659 2.8396587818861008e-02</internalNodes>
          <leafValues>
            -1.4921833574771881e-01 3.8412147760391235e-01</leafValues></_>
        <_>
          <internalNodes>
            0 -1 427 -4.7652222565375268e-04</internalNodes>
          <leafValues>
            -5.5738312005996704e-01 9.2235743999481201e-02</leafValues></_>
        <_>
          <internalNodes>
            0 -1 251 7.5591239146888256e-04</internalNodes>
          <leafValues>
            6.8869881331920624e-02 -6.3066309690475464e-01</leafValues></_>
        <_>
          <internalNodes>
            0 -1 251 -4.7449301928281784e-04</internalNodes>
          <leafValues>
            -4.8209077119827271e-01 8.9247137308120728e-02</leafValues></_>
        <_>
          <internalNodes>
            0 -1 45 -1.2824429199099541e-02</internalNodes>
          <leafValues>
            4.3934756517410278e-01 -1.1814313381910324e-01</leafValues></_>
        <_>
          <internalNodes>
            0 -1 333 -4.0669001638889313e-02</internalNodes>
          <leafValues>
            4.7667202353477478e-01 -1.0900120437145233e-01</leafValues></_>
        <_>
          <internalNodes>
            0 -1 322 -8.0353640019893646e-02</internalNodes>
          <leafValues>
            3.3349341154098511e-01 -1.3042835891246796e-01</leafValues></_>
        <_>
          <internalNodes>
            0 -1 585 2.7555365115404129e-02</internalNodes>
          <leafValues>
            -1.2377344816923141e-01 3.4753280878067017e-01</leafValues></_>
        <_>
          <internalNodes>
            0 -1 519 6.1926115304231644e-03</internalNodes>
          <leafValues>
            6.2463600188493729e-02 -6.6628074645996094e-01</leafValues></_>
        <_>
          <internalNodes>
            0 -1 53 -1.2215251475572586e-01</internalNodes>
          <leafValues>
            3.9385804533958435e-01 -1.0287271440029144e-01</leafValues></_>
        <_>
          <internalNodes>
            0 -1 32 3.5773180425167084e-02</internalNodes>
          <leafValues>
            -1.2592324614524841e-01 3.5250037908554077e-01</leafValues></_>
        <_>
          <internalNodes>
            0 -1 124 -4.2089246562682092e-04</internalNodes>
          <leafValues>
            -4.1840323805809021e-01 9.7172453999519348e-02</leafValues></_>
        <_>
          <internalNodes>
            0 -1 231 -2.0919848233461380e-02</internalNodes>
          <leafValues>
            2.7152794599533081e-01 -1.3661655783653259e-01</leafValues></_>
        <_>
          <internalNodes>
            0 -1 287 -3.2059054821729660e-02</internalNodes>
          <leafValues>
            3.2256007194519043e-01 -1.1979113519191742e-01</leafValues></_>
        <_>
          <internalNodes>
            0 -1 256 -5.1255665719509125e-02</internalNodes>
          <leafValues>
            4.0018811821937561e-01 -8.9620172977447510e-02</leafValues></_>
        <_>
          <internalNodes>
            0 -1 22 -1.8498373683542013e-03</internalNodes>
          <leafValues>
            -4.7682431340217590e-01 8.1550464034080505e-02</leafValues></_>
        <_>
          <internalNodes>
            0 -1 539 -4.3244147673249245e-03</internalNodes>
          <leafValues>
            2.3021802306175232e-01 -1.7611122131347656e-01</leafValues></_>
        <_>
          <internalNodes>
            0 -1 568 4.6653919853270054e-03</internalNodes>
          <leafValues>
            -1.2378024309873581e-01 3.1238669157028198e-01</leafValues></_>
        <_>
          <internalNodes>
            0 -1 49 -2.1368913352489471e-02</internalNodes>
          <leafValues>
            3.2065317034721375e-01 -1.1350174248218536e-01</leafValues></_>
        <_>
          <internalNodes>
            0 -1 196 1.7938601085916162e-03</internalNodes>
          <leafValues>
            -1.2080287188291550e-01 3.6137777566909790e-01</leafValues></_>
        <_>
          <internalNodes>
            0 -1 797 -7.2411552537232637e-04</internalNodes>
          <leafValues>
            -4.7276923060417175e-01 8.8520407676696777e-02</leafValues></_>
        <_>
          <internalNodes>
            0 -1 766 -4.3301340192556381e-03</internalNodes>
          <leafValues>
            -6.3951498270034790e-01 5.4478351026773453e-02</leafValues></_>
        <_>
          <internalNodes>
            0 -1 550 -5.4981601424515247e-03</internalNodes>
          <leafValues>
            3.7183883786201477e-01 -1.2158741056919098e-01</leafValues></_>
        <_>
          <internalNodes>
            0 -1 514 1.3423063792288303e-03</internalNodes>
          <leafValues>
            -1.1600370705127716e-01 3.6582174897193909e-01</leafValues></_>
        <_>
          <internalNodes>
            0 -1 784 -1.0822396725416183e-03</internalNodes>
          <leafValues>
            -5.3477466106414795e-01 7.9813510179519653e-02</leafValues></_>
        <_>
          <internalNodes>
            0 -1 370 -3.0937415431253612e-05</internalNodes>
          <leafValues>
            1.8148344755172729e-01 -1.9787040352821350e-01</leafValues></_>
        <_>
          <internalNodes>
            0 -1 386 1.0133668547496200e-03</internalNodes>
          <leafValues>
            8.1543907523155212e-02 -4.6168568730354309e-01</leafValues></_>
        <_>
          <internalNodes>
            0 -1 541 3.8867697003297508e-04</internalNodes>
          <leafValues>
            -1.5526701509952545e-01 2.3338641226291656e-01</leafValues></_>
        <_>
          <internalNodes>
            0 -1 606 6.0809124261140823e-04</internalNodes>
          <leafValues>
            -9.7519107162952423e-02 3.6829176545143127e-01</leafValues></_>
        <_>
          <internalNodes>
            0 -1 653 -5.7286082301288843e-04</internalNodes>
          <leafValues>
            -4.7184836864471436e-01 8.7155871093273163e-02</leafValues></_>
        <_>
          <internalNodes>
            0 -1 653 1.5521296299993992e-03</internalNodes>
          <leafValues>
            4.1161704808473587e-02 -7.8048646450042725e-01</leafValues></_>
        <_>
          <internalNodes>
            0 -1 37 -2.4922493845224380e-02</internalNodes>
          <leafValues>
            3.4697109460830688e-01 -1.1619558930397034e-01</leafValues></_>
        <_>
          <internalNodes>
            0 -1 763 -3.6676242016255856e-03</internalNodes>
          <leafValues>
            -5.2364635467529297e-01 7.3051691055297852e-02</leafValues></_>
        <_>
          <internalNodes>
            0 -1 536 -5.2647100528702140e-04</internalNodes>
          <leafValues>
            2.0199798047542572e-01 -1.7742078006267548e-01</leafValues></_>
        <_>
          <internalNodes>
            0 -1 374 9.4776861369609833e-03</internalNodes>
          <leafValues>
            -1.2583708763122559e-01 3.2683712244033813e-01</leafValues></_></weakClassifiers></_>
    <!-- stage 6 -->
    <_>
      <maxWeakCount>41</maxWeakCount>
      <stageThreshold>-6.0490936040878296e-01</stageThreshold>
      <weakClassifiers>
        <_>
          <internalNodes>
            0 -1 383 3.3326481934636831e-04</internalNodes>
          <leafValues>
            7.7547168731689453e-01 1.0625000298023224e-01</leafValues></_>
        <_>
          <internalNodes>
            0 -1 691 -2.7336814673617482e-04</internalNodes>
          <leafValues>
            -3.4517213702201843e-01 3.7817013263702393e-01</leafValues></_>
        <_>
          <internalNodes>
            0 -1 691 2.8969324193894863e-04</internalNodes>
          <leafValues>
            1.8030866980552673e-01 -5.7486164569854736e-01</leafValues></_>
        <_>
          <internalNodes>
            0 -1 378 2.7897126972675323e-02</internalNodes>
          <leafValues>
            -2.3781031370162964e-01 3.6616021394729614e-01</leafValues></_>
        <_>
          <internalNodes>
            0 -1 518 7.0600036997348070e-04</internalNodes>
          <leafValues>
            1.3113477826118469e-01 -5.4980331659317017e-01</leafValues></_>
        <_>
          <internalNodes>
            0 -1 521 -2.4409894831478596e-04</internalNodes>
          <leafValues>
            -4.3888148665428162e-01 1.3816662132740021e-01</leafValues></_>
        <_>
          <internalNodes>
            0 -1 688 8.9272009208798409e-03</internalNodes>
          <leafValues>
            -2.3982766270637512e-01 2.6092708110809326e-01</leafValues></_>
        <_>
          <internalNodes>
            0 -1 176 4.4213485671207309e-04</internalNodes>
          <leafValues>
            5.1752712577581406e-02 -5.8732151985168457e-01</leafValues></_>
        <_>
          <internalNodes>
            0 -1 177 -1.5326974971685559e-04</internalNodes>
          <leafValues>
            -3.5596317052841187e-01 1.4111389219760895e-01</leafValues></_>
        <_>
          <internalNodes>
            0 -1 618 -2.8618780896067619e-02</internalNodes>
          <leafValues>
            4.6236535906791687e-01 -1.1290153115987778e-01</leafValues></_>
        <_>
          <internalNodes>
            0 -1 90 -1.4725057408213615e-02</internalNodes>
          <leafValues>
            2.7336525917053223e-01 -1.9627876579761505e-01</leafValues></_>
        <_>
          <internalNodes>
            0 -1 330 -2.0173359662294388e-02</internalNodes>
          <leafValues>
            3.1370532512664795e-01 -1.6583508253097534e-01</leafValues></_>
        <_>
          <internalNodes>
            0 -1 255 -6.4368814229965210e-02</internalNodes>
          <leafValues>
            4.0471741557121277e-01 -1.2273930758237839e-01</leafValues></_>
        <_>
          <internalNodes>
            0 -1 209 -4.9924524500966072e-04</internalNodes>
          <leafValues>
            -4.7124177217483521e-01 1.0384433716535568e-01</leafValues></_>
        <_>
          <internalNodes>
            0 -1 251 -2.3730589600745589e-04</internalNodes>
          <leafValues>
            -3.4879338741302490e-01 1.3027611374855042e-01</leafValues></_>
        <_>
          <internalNodes>
            0 -1 73 9.4695538282394409e-02</internalNodes>
          <leafValues>
            4.5406974852085114e-02 -7.6185125112533569e-01</leafValues></_>
        <_>
          <internalNodes>
            0 -1 791 -7.0430478081107140e-04</internalNodes>
          <leafValues>
            -4.5837283134460449e-01 8.6623497307300568e-02</leafValues></_>
        <_>
          <internalNodes>
            0 -1 339 -8.4420964121818542e-03</internalNodes>
          <leafValues>
            4.5925059914588928e-01 -9.7031846642494202e-02</leafValues></_>
        <_>
          <internalNodes>
            0 -1 240 -1.1059476993978024e-02</internalNodes>
          <leafValues>
            5.1789689064025879e-01 -8.3420813083648682e-02</leafValues></_>
        <_>
          <internalNodes>
            0 -1 340 -5.3792481776326895e-04</internalNodes>
          <leafValues>
            -3.2225513458251953e-01 1.2907856702804565e-01</leafValues></_>
        <_>
          <internalNodes>
            0 -1 340 4.7930306755006313e-04</internalNodes>
          <leafValues>
            1.1910422146320343e-01 -3.5538187623023987e-01</leafValues></_>
        <_>
          <internalNodes>
            0 -1 726 -5.7396446354687214e-03</internalNodes>
          <leafValues>
            4.6457844972610474e-01 -9.6772685647010803e-02</leafValues></_>
        <_>
          <internalNodes>
            0 -1 382 -1.2071783654391766e-02</internalNodes>
          <leafValues>
            5.5456554889678955e-01 -6.6918462514877319e-02</leafValues></_>
        <_>
          <internalNodes>
            0 -1 752 4.9177207984030247e-04</internalNodes>
          <leafValues>
            8.5400931537151337e-02 -4.6008747816085815e-01</leafValues></_>
        <_>
          <internalNodes>
            0 -1 318 1.5758525580167770e-02</internalNodes>
          <leafValues>
            -7.6087705790996552e-02 5.5329978466033936e-01</leafValues></_>
        <_>
          <internalNodes>
            0 -1 319 -1.5128808096051216e-02</internalNodes>
          <leafValues>
            5.4392725229263306e-01 -6.5690256655216217e-02</leafValues></_>
        <_>
          <internalNodes>
            0 -1 46 -7.5614061206579208e-03</internalNodes>
          <leafValues>
            2.6875624060630798e-01 -1.3552159070968628e-01</leafValues></_>
        <_>
          <internalNodes>
            0 -1 755 1.1114611697848886e-04</internalNodes>
          <leafValues>
            1.3137169182300568e-01 -2.7168759703636169e-01</leafValues></_>
        <_>
          <internalNodes>
            0 -1 111 -3.9240391924977303e-03</internalNodes>
          <leafValues>
            -5.3978544473648071e-01 6.5207384526729584e-02</leafValues></_>
        <_>
          <internalNodes>
            0 -1 122 -3.1231832690536976e-04</internalNodes>
          <leafValues>
            -2.9958209395408630e-01 1.3138796389102936e-01</leafValues></_>
        <_>
          <internalNodes>
            0 -1 85 -2.0851146429777145e-02</internalNodes>
          <leafValues>
            2.3995113372802734e-01 -1.7034839093685150e-01</leafValues></_>
        <_>
          <internalNodes>
            0 -1 16 8.1479139626026154e-03</internalNodes>
          <leafValues>
            -1.3020355999469757e-01 3.3797109127044678e-01</leafValues></_>
        <_>
          <internalNodes>
            0 -1 1 -1.9908529066015035e-04</internalNodes>
          <leafValues>
            -2.5547435879707336e-01 1.4857476949691772e-01</leafValues></_>
        <_>
          <internalNodes>
            0 -1 483 6.6931080073118210e-03</internalNodes>
          <leafValues>
            -7.2198756039142609e-02 5.4189127683639526e-01</leafValues></_>
        <_>
          <internalNodes>
            0 -1 627 3.6020306870341301e-03</internalNodes>
          <leafValues>
            -1.1341555416584015e-01 3.0691930651664734e-01</leafValues></_>
        <_>
          <internalNodes>
            0 -1 607 -2.1274070604704320e-04</internalNodes>
          <leafValues>
            -3.2815703749656677e-01 1.1670055985450745e-01</leafValues></_>
        <_>
          <internalNodes>
            0 -1 569 -1.7304018139839172e-02</internalNodes>
          <leafValues>
            3.2855620980262756e-01 -1.2257429957389832e-01</leafValues></_>
        <_>
          <internalNodes>
            0 -1 171 2.7986097848042846e-04</internalNodes>
          <leafValues>
            1.3300843536853790e-01 -3.0684155225753784e-01</leafValues></_>
        <_>
          <internalNodes>
            0 -1 623 -3.1879409216344357e-03</internalNodes>
          <leafValues>
            4.1138288378715515e-01 -8.4071621298789978e-02</leafValues></_>
        <_>
          <internalNodes>
            0 -1 591 -6.9564097793772817e-04</internalNodes>
          <leafValues>
            -4.7616854310035706e-01 7.4716590344905853e-02</leafValues></_>
        <_>
          <internalNodes>
            0 -1 29 -5.9261143207550049e-01</internalNodes>
          <leafValues>
            -8.4361600875854492e-01 3.5312693566083908e-02</leafValues></_></weakClassifiers></_>
    <!-- stage 7 -->
    <_>
      <maxWeakCount>30</maxWeakCount>
      <stageThreshold>-5.8517336845397949e-01</stageThreshold>
      <weakClassifiers>
        <_>
          <internalNodes>
            0 -1 522 -1.3344470644369721e-03</internalNodes>
          <leafValues>
            1.6113744676113129e-01 7.9012346267700195e-01</leafValues></_>
        <_>
          <internalNodes>
            0 -1 522 1.0806706268340349e-03</internalNodes>
          <leafValues>
            3.6807233095169067e-01 -4.5429188013076782e-01</leafValues></_>
        <_>
          <internalNodes>
            0 -1 692 1.1956789530813694e-03</internalNodes>
          <leafValues>
            1.6052196919918060e-01 -5.4075288772583008e-01</leafValues></_>
        <_>
          <internalNodes>
            0 -1 708 -3.3465103479102254e-04</internalNodes>
          <leafValues>
            -6.4964210987091064e-01 1.3632529973983765e-01</leafValues></_>
        <_>
          <internalNodes>
            0 -1 419 2.9889171943068504e-02</internalNodes>
          <leafValues>
            -2.1119993925094604e-01 3.7777060270309448e-01</leafValues></_>
        <_>
          <internalNodes>
            0 -1 341 4.9668201245367527e-04</internalNodes>
          <leafValues>
            1.4793387055397034e-01 -5.7912141084671021e-01</leafValues></_>
        <_>
          <internalNodes>
            0 -1 210 8.1979751121252775e-04</internalNodes>
          <leafValues>
            1.3651582598686218e-01 -4.6789854764938354e-01</leafValues></_>
        <_>
          <internalNodes>
            0 -1 498 -1.5013815136626363e-03</internalNodes>
          <leafValues>
            6.1134314537048340e-01 -1.1189965158700943e-01</leafValues></_>
        <_>
          <internalNodes>
            0 -1 358 6.4964513294398785e-03</internalNodes>
          <leafValues>
            -1.5565043687820435e-01 6.1368435621261597e-01</leafValues></_>
        <_>
          <internalNodes>
            0 -1 380 -7.6905777677893639e-03</internalNodes>
          <leafValues>
            6.4777106046676636e-01 -8.2401521503925323e-02</leafValues></_>
        <_>
          <internalNodes>
            0 -1 208 -2.3809584672562778e-04</internalNodes>
          <leafValues>
            -3.8236290216445923e-01 1.4916083216667175e-01</leafValues></_>
        <_>
          <internalNodes>
            0 -1 100 -5.5449223145842552e-03</internalNodes>
          <leafValues>
            1.8970115482807159e-01 -3.0416247248649597e-01</leafValues></_>
        <_>
          <internalNodes>
            0 -1 209 2.0128684991504997e-04</internalNodes>
          <leafValues>
            1.4703074097633362e-01 -3.8511148095130920e-01</leafValues></_>
        <_>
          <internalNodes>
            0 -1 579 1.5469477511942387e-03</internalNodes>
          <leafValues>
            -9.4682760536670685e-02 5.3551781177520752e-01</leafValues></_>
        <_>
          <internalNodes>
            0 -1 581 -2.5077401660382748e-03</internalNodes>
          <leafValues>
            5.7306230068206787e-01 -9.7926102578639984e-02</leafValues></_>
        <_>
          <internalNodes>
            0 -1 785 -1.8164770444855094e-03</internalNodes>
          <leafValues>
            -3.8959890604019165e-01 1.4362086355686188e-01</leafValues></_>
        <_>
          <internalNodes>
            0 -1 207 -1.0583734139800072e-02</internalNodes>
          <leafValues>
            5.4970771074295044e-01 -1.0694134980440140e-01</leafValues></_>
        <_>
          <internalNodes>
            0 -1 803 1.7001680680550635e-04</internalNodes>
          <leafValues>
            1.5887454152107239e-01 -3.3094695210456848e-01</leafValues></_>
        <_>
          <internalNodes>
            0 -1 302 7.8025436960160732e-03</internalNodes>
          <leafValues>
            -8.4117397665977478e-02 6.5052551031112671e-01</leafValues></_>
        <_>
          <internalNodes>
            0 -1 335 -7.0693092420697212e-03</internalNodes>
          <leafValues>
            5.4458004236221313e-01 -1.0050187259912491e-01</leafValues></_>
        <_>
          <internalNodes>
            0 -1 338 1.1344918981194496e-02</internalNodes>
          <leafValues>
            1.0804919898509979e-01 -4.9105843901634216e-01</leafValues></_>
        <_>
          <internalNodes>
            0 -1 679 -5.4646036587655544e-03</internalNodes>
          <leafValues>
            3.7760734558105469e-01 -1.3634274899959564e-01</leafValues></_>
        <_>
          <internalNodes>
            0 -1 0 -1.9648135639727116e-04</internalNodes>
          <leafValues>
            -3.4468635916709900e-01 1.4225542545318604e-01</leafValues></_>
        <_>
          <internalNodes>
            0 -1 511 -1.4771659625694156e-03</internalNodes>
          <leafValues>
            5.6008398532867432e-01 -8.9816771447658539e-02</leafValues></_>
        <_>
          <internalNodes>
            0 -1 559 -3.1297672539949417e-03</internalNodes>
          <leafValues>
            6.6006702184677124e-01 -6.4384326338768005e-02</leafValues></_>
        <_>
          <internalNodes>
            0 -1 800 2.3850129218772054e-04</internalNodes>
          <leafValues>
            1.4287818968296051e-01 -3.4910455346107483e-01</leafValues></_>
        <_>
          <internalNodes>
            0 -1 799 -1.9199983216822147e-03</internalNodes>
          <leafValues>
            -4.8919957876205444e-01 9.4820670783519745e-02</leafValues></_>
        <_>
          <internalNodes>
            0 -1 625 1.9584773108363152e-03</internalNodes>
          <leafValues>
            -7.5521096587181091e-02 6.5767717361450195e-01</leafValues></_>
        <_>
          <internalNodes>
            0 -1 375 -4.4254530221223831e-03</internalNodes>
          <leafValues>
            4.7114410996437073e-01 -8.5599191486835480e-02</leafValues></_>
        <_>
          <internalNodes>
            0 -1 561 2.5419695302844048e-03</internalNodes>
          <leafValues>
            -5.0635591149330139e-02 7.4908334016799927e-01</leafValues></_></weakClassifiers></_>
    <!-- stage 8 -->
    <_>
      <maxWeakCount>43</maxWeakCount>
      <stageThreshold>-4.7060170769691467e-01</stageThreshold>
      <weakClassifiers>
        <_>
          <internalNodes>
            0 -1 245 5.6897616013884544e-03</internalNodes>
          <leafValues>
            4.6666666865348816e-01 8.2702702283859253e-01</leafValues></_>
        <_>
          <internalNodes>
            0 -1 676 1.4518588781356812e-02</internalNodes>
          <leafValues>
            -1.2541611213237047e-03 5.4264748096466064e-01</leafValues></_>
        <_>
          <internalNodes>
            0 -1 193 -3.5641973372548819e-03</internalNodes>
          <leafValues>
            5.5385547876358032e-01 -9.8277561366558075e-02</leafValues></_>
        <_>
          <internalNodes>
            0 -1 158 -3.8075256161391735e-03</internalNodes>
          <leafValues>
            4.7111374139785767e-01 -1.4638149738311768e-01</leafValues></_>
        <_>
          <internalNodes>
            0 -1 93 -4.0715094655752182e-03</internalNodes>
          <leafValues>
            -4.3238651752471924e-01 1.3925470411777496e-01</leafValues></_>
        <_>
          <internalNodes>
            0 -1 30 -5.9958859346807003e-03</internalNodes>
          <leafValues>
            5.6715792417526245e-01 -1.0872326046228409e-01</leafValues></_>
        <_>
          <internalNodes>
            0 -1 520 3.3861189149320126e-04</internalNodes>
          <leafValues>
            1.0773111879825592e-01 -5.4374068975448608e-01</leafValues></_>
        <_>
          <internalNodes>
            0 -1 457 -5.6980550289154053e-04</internalNodes>
          <leafValues>
            -4.3611571192741394e-01 1.3255055248737335e-01</leafValues></_>
        <_>
          <internalNodes>
            0 -1 481 -4.9622571095824242e-03</internalNodes>
          <leafValues>
            7.6185357570648193e-01 -9.0055137872695923e-02</leafValues></_>
        <_>
          <internalNodes>
            0 -1 476 5.0071757286787033e-03</internalNodes>
          <leafValues>
            -8.1349506974220276e-02 5.3903245925903320e-01</leafValues></_>
        <_>
          <internalNodes>
            0 -1 105 -2.4599442258477211e-03</internalNodes>
          <leafValues>
            2.6712635159492493e-01 -1.8320111930370331e-01</leafValues></_>
        <_>
          <internalNodes>
            0 -1 660 -2.4112794548273087e-02</internalNodes>
          <leafValues>
            4.3685790896415710e-01 -1.1128614097833633e-01</leafValues></_>
        <_>
          <internalNodes>
            0 -1 656 -1.7579057021066546e-04</internalNodes>
          <leafValues>
            -3.1548365950584412e-01 1.7888951301574707e-01</leafValues></_>
        <_>
          <internalNodes>
            0 -1 455 2.2281971178017557e-04</internalNodes>
          <leafValues>
            1.0429417341947556e-01 -4.3708738684654236e-01</leafValues></_>
        <_>
          <internalNodes>
            0 -1 233 -4.3010399676859379e-03</internalNodes>
          <leafValues>
            4.3214765191078186e-01 -1.0281344503164291e-01</leafValues></_>
        <_>
          <internalNodes>
            0 -1 212 5.7161832228302956e-03</internalNodes>
          <leafValues>
            -9.2245839536190033e-02 4.9301090836524963e-01</leafValues></_>
        <_>
          <internalNodes>
            0 -1 308 2.6240787701681256e-04</internalNodes>
          <leafValues>
            1.1943429708480835e-01 -4.1177043318748474e-01</leafValues></_>
        <_>
          <internalNodes>
            0 -1 412 -5.0395345315337181e-03</internalNodes>
          <leafValues>
            5.2949261665344238e-01 -8.7091214954853058e-02</leafValues></_>
        <_>
          <internalNodes>
            0 -1 528 3.0375076457858086e-03</internalNodes>
          <leafValues>
            -9.0096481144428253e-02 4.2528772354125977e-01</leafValues></_>
        <_>
          <internalNodes>
            0 -1 529 -4.0512247942388058e-03</internalNodes>
          <leafValues>
            4.3461441993713379e-01 -9.3551471829414368e-02</leafValues></_>
        <_>
          <internalNodes>
            0 -1 797 -5.4477469529956579e-04</internalNodes>
          <leafValues>
            -4.6025270223617554e-01 9.8057515919208527e-02</leafValues></_>
        <_>
          <internalNodes>
            0 -1 630 4.0711052715778351e-03</internalNodes>
          <leafValues>
            -2.4913984537124634e-01 2.0032265782356262e-01</leafValues></_>
        <_>
          <internalNodes>
            0 -1 305 -4.4608299504034221e-04</internalNodes>
          <leafValues>
            -4.3811032176017761e-01 1.0615102946758270e-01</leafValues></_>
        <_>
          <internalNodes>
            0 -1 394 -1.2536145746707916e-02</internalNodes>
          <leafValues>
            6.0107469558715820e-01 -7.4623942375183105e-02</leafValues></_>
        <_>
          <internalNodes>
            0 -1 259 -2.8364956961013377e-04</internalNodes>
          <leafValues>
            -2.8045633435249329e-01 1.5080742537975311e-01</leafValues></_>
        <_>
          <internalNodes>
            0 -1 396 -1.2460574507713318e-02</internalNodes>
          <leafValues>
            5.3331029415130615e-01 -7.8528702259063721e-02</leafValues></_>
        <_>
          <internalNodes>
            0 -1 725 3.9370814338326454e-03</internalNodes>
          <leafValues>
            -5.9022318571805954e-02 6.1756330728530884e-01</leafValues></_>
        <_>
          <internalNodes>
            0 -1 732 -4.9925060011446476e-03</internalNodes>
          <leafValues>
            6.2218928337097168e-01 -6.8087205290794373e-02</leafValues></_>
        <_>
          <internalNodes>
            0 -1 753 4.7741195885464549e-04</internalNodes>
          <leafValues>
            8.5918761789798737e-02 -5.1572245359420776e-01</leafValues></_>
        <_>
          <internalNodes>
            0 -1 753 -3.4775253152474761e-04</internalNodes>
          <leafValues>
            -5.1043581962585449e-01 9.4602108001708984e-02</leafValues></_>
        <_>
          <internalNodes>
            0 -1 201 -1.8347639590501785e-02</internalNodes>
          <leafValues>
            2.8353857994079590e-01 -1.4683945477008820e-01</leafValues></_>
        <_>
          <internalNodes>
            0 -1 788 -2.3443200625479221e-03</internalNodes>
          <leafValues>
            -4.9105378985404968e-01 8.6033672094345093e-02</leafValues></_>
        <_>
          <internalNodes>
            0 -1 409 -3.2151034101843834e-03</internalNodes>
          <leafValues>
            7.1268343925476074e-01 -5.8909416198730469e-02</leafValues></_>
        <_>
          <internalNodes>
            0 -1 601 -2.5329554919153452e-03</internalNodes>
          <leafValues>
            6.0963332653045654e-01 -5.4333977401256561e-02</leafValues></_>
        <_>
          <internalNodes>
            0 -1 13 -2.4218566250056028e-04</internalNodes>
          <leafValues>
            -3.1099587678909302e-01 1.3094656169414520e-01</leafValues></_>
        <_>
          <internalNodes>
            0 -1 599 2.8953668661415577e-03</internalNodes>
          <leafValues>
            -7.9598277807235718e-02 5.2399045228958130e-01</leafValues></_>
        <_>
          <internalNodes>
            0 -1 626 -1.8111553043127060e-02</internalNodes>
          <leafValues>
            4.0299981832504272e-01 -8.7466061115264893e-02</leafValues></_>
        <_>
          <internalNodes>
            0 -1 591 2.8917728923261166e-04</internalNodes>
          <leafValues>
            9.4089180231094360e-02 -3.9972615242004395e-01</leafValues></_>
        <_>
          <internalNodes>
            0 -1 434 -7.6821576803922653e-03</internalNodes>
          <leafValues>
            5.2228724956512451e-01 -7.9402521252632141e-02</leafValues></_>
        <_>
          <internalNodes>
            0 -1 284 4.6788137406110764e-03</internalNodes>
          <leafValues>
            -9.1729357838630676e-02 3.8427561521530151e-01</leafValues></_>
        <_>
          <internalNodes>
            0 -1 135 -3.6287037073634565e-04</internalNodes>
          <leafValues>
            -3.6295244097709656e-01 1.0357811301946640e-01</leafValues></_>
        <_>
          <internalNodes>
            0 -1 179 -2.0595783367753029e-02</internalNodes>
          <leafValues>
            3.0346733331680298e-01 -1.2202074378728867e-01</leafValues></_>
        <_>
          <internalNodes>
            0 -1 12 5.8651149272918701e-02</internalNodes>
          <leafValues>
            -1.2821505963802338e-01 3.7288233637809753e-01</leafValues></_></weakClassifiers></_>
    <!-- stage 9 -->
    <_>
      <maxWeakCount>46</maxWeakCount>
      <stageThreshold>-5.6102573871612549e-01</stageThreshold>
      <weakClassifiers>
        <_>
          <internalNodes>
            0 -1 741 -9.1820943634957075e-04</internalNodes>
          <leafValues>
            1.6835017129778862e-02 7.4518871307373047e-01</leafValues></_>
        <_>
          <internalNodes>
            0 -1 683 1.3383543118834496e-02</internalNodes>
          <leafValues>
            -4.9970012158155441e-02 5.1368618011474609e-01</leafValues></_>
        <_>
          <internalNodes>
            0 -1 366 -4.8025529831647873e-02</internalNodes>
          <leafValues>
            4.3156510591506958e-01 -1.5620134770870209e-01</leafValues></_>
        <_>
          <internalNodes>
            0 -1 430 -2.6273503899574280e-02</internalNodes>
          <leafValues>
            3.9716017246246338e-01 -1.3795696198940277e-01</leafValues></_>
        <_>
          <internalNodes>
            0 -1 17 -2.3845341056585312e-02</internalNodes>
          <leafValues>
            3.5865560173988342e-01 -1.5706709027290344e-01</leafValues></_>
        <_>
          <internalNodes>
            0 -1 408 -4.6008031815290451e-02</internalNodes>
          <leafValues>
            4.1336050629615784e-01 -1.4776188135147095e-01</leafValues></_>
        <_>
          <internalNodes>
            0 -1 184 -1.1850705742835999e-01</internalNodes>
          <leafValues>
            6.0170644521713257e-01 -9.1944560408592224e-02</leafValues></_>
        <_>
          <internalNodes>
            0 -1 305 6.4684962853789330e-04</internalNodes>
          <leafValues>
            1.1097995191812515e-01 -4.8062658309936523e-01</leafValues></_>
        <_>
          <internalNodes>
            0 -1 621 1.8191756680607796e-02</internalNodes>
          <leafValues>
            -1.4669716358184814e-01 3.2750371098518372e-01</leafValues></_>
        <_>
          <internalNodes>
            0 -1 438 -3.7349611520767212e-02</internalNodes>
          <leafValues>
            3.9697080850601196e-01 -1.3688920438289642e-01</leafValues></_>
        <_>
          <internalNodes>
            0 -1 637 -1.0469846893101931e-03</internalNodes>
          <leafValues>
            -5.7765734195709229e-01 8.6234338581562042e-02</leafValues></_>
        <_>
          <internalNodes>
            0 -1 637 6.4626190578565001e-04</internalNodes>
          <leafValues>
            1.0306803137063980e-01 -5.3148263692855835e-01</leafValues></_>
        <_>
          <internalNodes>
            0 -1 393 -1.1501670815050602e-02</internalNodes>
          <leafValues>
            3.6541438102722168e-01 -1.2266337871551514e-01</leafValues></_>
        <_>
          <internalNodes>
            0 -1 316 1.6986530274152756e-02</internalNodes>
          <leafValues>
            -1.1675094068050385e-01 3.9182230830192566e-01</leafValues></_>
        <_>
          <internalNodes>
            0 -1 492 1.1679991985147353e-05</internalNodes>
          <leafValues>
            -1.9235572218894958e-01 2.1468396484851837e-01</leafValues></_>
        <_>
          <internalNodes>
            0 -1 299 -4.9185091629624367e-03</internalNodes>
          <leafValues>
            3.5661515593528748e-01 -1.1127471178770065e-01</leafValues></_>
        <_>
          <internalNodes>
            0 -1 372 1.0478288459125906e-05</internalNodes>
          <leafValues>
            -1.7755068838596344e-01 2.6493528485298157e-01</leafValues></_>
        <_>
          <internalNodes>
            0 -1 390 -1.6355650126934052e-01</internalNodes>
          <leafValues>
            3.1469723582267761e-01 -1.6715537011623383e-01</leafValues></_>
        <_>
          <internalNodes>
            0 -1 526 -1.2413766235113144e-02</internalNodes>
          <leafValues>
            3.7973174452781677e-01 -1.1475264281034470e-01</leafValues></_>
        <_>
          <internalNodes>
            0 -1 80 -1.4158124104142189e-02</internalNodes>
          <leafValues>
            4.0029221773147583e-01 -9.7553908824920654e-02</leafValues></_>
        <_>
          <internalNodes>
            0 -1 25 -3.4226953983306885e-02</internalNodes>
          <leafValues>
            3.9811617136001587e-01 -9.7240485250949860e-02</leafValues></_>
        <_>
          <internalNodes>
            0 -1 137 1.0276287866872735e-05</internalNodes>
          <leafValues>
            -1.7165231704711914e-01 2.3380459845066071e-01</leafValues></_>
        <_>
          <internalNodes>
            0 -1 138 6.2521372456103563e-04</internalNodes>
          <leafValues>
            1.0358408838510513e-01 -6.1289191246032715e-01</leafValues></_>
        <_>
          <internalNodes>
            0 -1 567 5.0648748874664307e-03</internalNodes>
          <leafValues>
            -1.1276039481163025e-01 3.6053353548049927e-01</leafValues></_>
        <_>
          <internalNodes>
            0 -1 748 -7.7511306153610349e-04</internalNodes>
          <leafValues>
            -3.3795747160911560e-01 1.2073571234941483e-01</leafValues></_>
        <_>
          <internalNodes>
            0 -1 472 1.7756564542651176e-02</internalNodes>
          <leafValues>
            -1.1324088275432587e-01 3.3178874850273132e-01</leafValues></_>
        <_>
          <internalNodes>
            0 -1 742 -8.0544565571472049e-04</internalNodes>
          <leafValues>
            -3.2515740394592285e-01 1.0639432817697525e-01</leafValues></_>
        <_>
          <internalNodes>
            0 -1 718 -6.4780237153172493e-03</internalNodes>
          <leafValues>
            3.2413852214813232e-01 -1.1141336709260941e-01</leafValues></_>
        <_>
          <internalNodes>
            0 -1 670 -1.1154178529977798e-02</internalNodes>
          <leafValues>
            3.2506516575813293e-01 -1.2563209235668182e-01</leafValues></_>
        <_>
          <internalNodes>
            0 -1 532 -9.7904494396061637e-06</internalNodes>
          <leafValues>
            2.2897808253765106e-01 -1.6789102554321289e-01</leafValues></_>
        <_>
          <internalNodes>
            0 -1 525 1.1102123185992241e-02</internalNodes>
          <leafValues>
            -8.5793189704418182e-02 4.0975120663642883e-01</leafValues></_>
        <_>
          <internalNodes>
            0 -1 742 9.5253891777247190e-04</internalNodes>
          <leafValues>
            9.7664244472980499e-02 -3.4441980719566345e-01</leafValues></_>
        <_>
          <internalNodes>
            0 -1 145 -6.8334891693666577e-05</internalNodes>
          <leafValues>
            -1.9973826408386230e-01 1.5036244690418243e-01</leafValues></_>
        <_>
          <internalNodes>
            0 -1 270 -1.3740703463554382e-02</internalNodes>
          <leafValues>
            4.9703136086463928e-01 -6.3485175371170044e-02</leafValues></_>
        <_>
          <internalNodes>
            0 -1 405 1.8888448830693960e-03</internalNodes>
          <leafValues>
            -1.0195580869913101e-01 3.2224902510643005e-01</leafValues></_>
        <_>
          <internalNodes>
            0 -1 359 -1.4926959760487080e-02</internalNodes>
          <leafValues>
            1.5130613744258881e-01 -2.2621726989746094e-01</leafValues></_>
        <_>
          <internalNodes>
            0 -1 149 -4.8307649791240692e-02</internalNodes>
          <leafValues>
            4.0119937062263489e-01 -1.0274302214384079e-01</leafValues></_>
        <_>
          <internalNodes>
            0 -1 219 -5.8357618749141693e-02</internalNodes>
          <leafValues>
            3.7284085154533386e-01 -9.0170122683048248e-02</leafValues></_>
        <_>
          <internalNodes>
            0 -1 574 1.6217583324760199e-03</internalNodes>
          <leafValues>
            5.9001360088586807e-02 -6.1157232522964478e-01</leafValues></_>
        <_>
          <internalNodes>
            0 -1 413 4.4060670770704746e-03</internalNodes>
          <leafValues>
            -1.2116411328315735e-01 2.8708758950233459e-01</leafValues></_>
        <_>
          <internalNodes>
            0 -1 672 6.9514354690909386e-03</internalNodes>
          <leafValues>
            -8.5328027606010437e-02 3.9997559785842896e-01</leafValues></_>
        <_>
          <internalNodes>
            0 -1 263 -1.4915317296981812e-02</internalNodes>
          <leafValues>
            1.5811005234718323e-01 -2.4187622964382172e-01</leafValues></_>
        <_>
          <internalNodes>
            0 -1 365 -2.6238994672894478e-02</internalNodes>
          <leafValues>
            6.0190391540527344e-01 -5.8067250996828079e-02</leafValues></_>
        <_>
          <internalNodes>
            0 -1 209 9.0531294699758291e-04</internalNodes>
          <leafValues>
            6.3875705003738403e-02 -5.9620517492294312e-01</leafValues></_>
        <_>
          <internalNodes>
            0 -1 251 6.5106176771223545e-04</internalNodes>
          <leafValues>
            4.9793954938650131e-02 -5.8001852035522461e-01</leafValues></_>
        <_>
          <internalNodes>
            0 -1 200 -1.2291528284549713e-02</internalNodes>
          <leafValues>
            3.8822197914123535e-01 -8.6107984185218811e-02</leafValues></_></weakClassifiers></_>
    <!-- stage 10 -->
    <_>
      <maxWeakCount>26</maxWeakCount>
      <stageThreshold>-5.1358550786972046e-01</stageThreshold>
      <weakClassifiers>
        <_>
          <internalNodes>
            0 -1 587 6.3572647050023079e-03</internalNodes>
          <leafValues>
            4.6143186092376709e-01 8.2750773429870605e-01</leafValues></_>
        <_>
          <internalNodes>
            0 -1 104 -2.3132832720875740e-03</internalNodes>
          <leafValues>
            4.7496619820594788e-01 -1.0305999219417572e-01</leafValues></_>
        <_>
          <internalNodes>
            0 -1 775 -1.0496472896193154e-05</internalNodes>
          <leafValues>
            3.7375360727310181e-01 -2.0570252835750580e-01</leafValues></_>
        <_>
          <internalNodes>
            0 -1 583 -3.4041574690490961e-04</internalNodes>
          <leafValues>
            3.3384186029434204e-01 -2.1585102379322052e-01</leafValues></_>
        <_>
          <internalNodes>
            0 -1 583 2.6124453870579600e-04</internalNodes>
          <leafValues>
            -2.2353175282478333e-01 3.7060272693634033e-01</leafValues></_>
        <_>
          <internalNodes>
            0 -1 801 -1.8552117981016636e-03</internalNodes>
          <leafValues>
            -5.2633398771286011e-01 1.5042723715305328e-01</leafValues></_>
        <_>
          <internalNodes>
            0 -1 185 7.9792074393481016e-04</internalNodes>
          <leafValues>
            -1.8958878517150879e-01 3.3767396211624146e-01</leafValues></_>
        <_>
          <internalNodes>
            0 -1 155 -8.4207975305616856e-04</internalNodes>
          <leafValues>
            3.9187684655189514e-01 -1.7869006097316742e-01</leafValues></_>
        <_>
          <internalNodes>
            0 -1 535 -6.8293862568680197e-05</internalNodes>
          <leafValues>
            2.5894606113433838e-01 -2.2162623703479767e-01</leafValues></_>
        <_>
          <internalNodes>
            0 -1 368 -3.0655129812657833e-03</internalNodes>
          <leafValues>
            2.9604652523994446e-01 -2.0715522766113281e-01</leafValues></_>
        <_>
          <internalNodes>
            0 -1 548 -2.7025950839743018e-04</internalNodes>
          <leafValues>
            4.0023475885391235e-01 -1.5582297742366791e-01</leafValues></_>
        <_>
          <internalNodes>
            0 -1 95 -7.1325735189020634e-03</internalNodes>
          <leafValues>
            -5.2991318702697754e-01 1.1565239727497101e-01</leafValues></_>
        <_>
          <internalNodes>
            0 -1 645 2.7159816818311810e-04</internalNodes>
          <leafValues>
            -1.6358408331871033e-01 3.7639129161834717e-01</leafValues></_>
        <_>
          <internalNodes>
            0 -1 646 -1.1699274182319641e-05</internalNodes>
          <leafValues>
            2.8133472800254822e-01 -2.1038468182086945e-01</leafValues></_>
        <_>
          <internalNodes>
            0 -1 91 -2.0482609979808331e-03</internalNodes>
          <leafValues>
            3.1806904077529907e-01 -1.5762281417846680e-01</leafValues></_>
        <_>
          <internalNodes>
            0 -1 328 1.1465765965112951e-05</internalNodes>
          <leafValues>
            -1.7922642827033997e-01 2.9846900701522827e-01</leafValues></_>
        <_>
          <internalNodes>
            0 -1 328 -9.9442358987289481e-06</internalNodes>
          <leafValues>
            2.9858484864234924e-01 -2.6225644350051880e-01</leafValues></_>
        <_>
          <internalNodes>
            0 -1 730 1.1251004412770271e-02</internalNodes>
          <leafValues>
            -1.5621213614940643e-01 3.5104721784591675e-01</leafValues></_>
        <_>
          <internalNodes>
            0 -1 332 -6.3388790003955364e-03</internalNodes>
          <leafValues>
            5.2376902103424072e-01 -9.3704745173454285e-02</leafValues></_>
        <_>
          <internalNodes>
            0 -1 633 9.7904494396061637e-06</internalNodes>
          <leafValues>
            -1.8780513107776642e-01 2.4535468220710754e-01</leafValues></_>
        <_>
          <internalNodes>
            0 -1 478 2.1884655579924583e-03</internalNodes>
          <leafValues>
            -1.5680964291095734e-01 2.7705278992652893e-01</leafValues></_>
        <_>
          <internalNodes>
            0 -1 257 -1.3445928692817688e-01</internalNodes>
          <leafValues>
            2.3728284239768982e-01 -2.2481520473957062e-01</leafValues></_>
        <_>
          <internalNodes>
            0 -1 411 -2.5247503072023392e-04</internalNodes>
          <leafValues>
            3.0226156115531921e-01 -1.6592812538146973e-01</leafValues></_>
        <_>
          <internalNodes>
            0 -1 411 3.1534727895632386e-04</internalNodes>
          <leafValues>
            -1.4300033450126648e-01 3.9009052515029907e-01</leafValues></_>
        <_>
          <internalNodes>
            0 -1 177 2.8654062771238387e-04</internalNodes>
          <leafValues>
            1.1282856017351151e-01 -4.4698545336723328e-01</leafValues></_>
        <_>
          <internalNodes>
            0 -1 727 -6.9908029399812222e-04</internalNodes>
          <leafValues>
            3.1006166338920593e-01 -1.6095933318138123e-01</leafValues></_></weakClassifiers></_>
    <!-- stage 11 -->
    <_>
      <maxWeakCount>34</maxWeakCount>
      <stageThreshold>-4.3008336424827576e-01</stageThreshold>
      <weakClassifiers>
        <_>
          <internalNodes>
            0 -1 244 7.3637710884213448e-03</internalNodes>
          <leafValues>
            4.4444444775581360e-01 8.4667801856994629e-01</leafValues></_>
        <_>
          <internalNodes>
            0 -1 649 2.3775803856551647e-03</internalNodes>
          <leafValues>
            -5.9019178152084351e-02 4.5516496896743774e-01</leafValues></_>
        <_>
          <internalNodes>
            0 -1 739 -1.0039086191682145e-05</internalNodes>
          <leafValues>
            3.4020546078681946e-01 -1.7350158095359802e-01</leafValues></_>
        <_>
          <internalNodes>
            0 -1 739 1.1109656043117866e-05</internalNodes>
          <leafValues>
            -1.6637396812438965e-01 3.7135818600654602e-01</leafValues></_>
        <_>
          <internalNodes>
            0 -1 167 -1.7689970554783940e-03</internalNodes>
          <leafValues>
            3.6623615026473999e-01 -1.5953490138053894e-01</leafValues></_>
        <_>
          <internalNodes>
            0 -1 666 -1.1109656043117866e-05</internalNodes>
          <leafValues>
            2.2537957131862640e-01 -2.1094459295272827e-01</leafValues></_>
        <_>
          <internalNodes>
            0 -1 629 -1.1104524674010463e-05</internalNodes>
          <leafValues>
            2.4562190473079681e-01 -1.9011951982975006e-01</leafValues></_>
        <_>
          <internalNodes>
            0 -1 629 1.0547683814365882e-05</internalNodes>
          <leafValues>
            -2.6116159558296204e-01 3.0697974562644958e-01</leafValues></_>
        <_>
          <internalNodes>
            0 -1 629 -1.1104524674010463e-05</internalNodes>
          <leafValues>
            2.7908942103385925e-01 -1.9345244765281677e-01</leafValues></_>
        <_>
          <internalNodes>
            0 -1 118 -2.3377437610179186e-03</internalNodes>
          <leafValues>
            -4.5306551456451416e-01 1.0694324970245361e-01</leafValues></_>
        <_>
          <internalNodes>
            0 -1 666 1.0873376595554873e-05</internalNodes>
          <leafValues>
            -2.0538993179798126e-01 2.2846640646457672e-01</leafValues></_>
        <_>
          <internalNodes>
            0 -1 487 -7.1645271964371204e-04</internalNodes>
          <leafValues>
            2.9052600264549255e-01 -1.4238753914833069e-01</leafValues></_>
        <_>
          <internalNodes>
            0 -1 298 -1.9505559466779232e-03</internalNodes>
          <leafValues>
            3.4446123242378235e-01 -1.1797526478767395e-01</leafValues></_>
        <_>
          <internalNodes>
            0 -1 477 -4.1254791431128979e-03</internalNodes>
          <leafValues>
            4.4945341348648071e-01 -1.1059124022722244e-01</leafValues></_>
        <_>
          <internalNodes>
            0 -1 325 -2.3359156330116093e-04</internalNodes>
          <leafValues>
            2.2122760117053986e-01 -2.0380595326423645e-01</leafValues></_>
        <_>
          <internalNodes>
            0 -1 294 -4.6297861263155937e-03</internalNodes>
          <leafValues>
            3.5785683989524841e-01 -1.2235762178897858e-01</leafValues></_>
        <_>
          <internalNodes>
            0 -1 447 5.9319869615137577e-04</internalNodes>
          <leafValues>
            -1.3576413691043854e-01 3.0310115218162537e-01</leafValues></_>
        <_>
          <internalNodes>
            0 -1 258 -8.0998674035072327e-02</internalNodes>
          <leafValues>
            3.4552294015884399e-01 -1.1800199002027512e-01</leafValues></_>
        <_>
          <internalNodes>
            0 -1 580 -6.1441620346158743e-04</internalNodes>
          <leafValues>
            3.0654236674308777e-01 -1.3696287572383881e-01</leafValues></_>
        <_>
          <internalNodes>
            0 -1 369 -2.1225780248641968e-02</internalNodes>
          <leafValues>
            2.1607135236263275e-01 -2.0525486767292023e-01</leafValues></_>
        <_>
          <internalNodes>
            0 -1 50 -4.8775695264339447e-02</internalNodes>
          <leafValues>
            4.0641728043556213e-01 -1.0441552847623825e-01</leafValues></_>
        <_>
          <internalNodes>
            0 -1 276 -5.4016128182411194e-02</internalNodes>
          <leafValues>
            5.6631964445114136e-01 -6.8859755992889404e-02</leafValues></_>
        <_>
          <internalNodes>
            0 -1 241 -9.0099740773439407e-03</internalNodes>
          <leafValues>
            4.0648475289344788e-01 -1.0068533569574356e-01</leafValues></_>
        <_>
          <internalNodes>
            0 -1 779 -8.2488581538200378e-03</internalNodes>
          <leafValues>
            -4.9026125669479370e-01 1.0122444480657578e-01</leafValues></_>
        <_>
          <internalNodes>
            0 -1 236 1.0885210031119641e-05</internalNodes>
          <leafValues>
            -1.6876076161861420e-01 2.4111787974834442e-01</leafValues></_>
        <_>
          <internalNodes>
            0 -1 236 -1.2080644410161767e-05</internalNodes>
          <leafValues>
            2.2857430577278137e-01 -2.0786786079406738e-01</leafValues></_>
        <_>
          <internalNodes>
            0 -1 709 -3.6375960917212069e-04</internalNodes>
          <leafValues>
            -4.8170006275177002e-01 8.5057049989700317e-02</leafValues></_>
        <_>
          <internalNodes>
            0 -1 790 -5.6951851584017277e-03</internalNodes>
          <leafValues>
            -6.0679370164871216e-01 6.1714030802249908e-02</leafValues></_>
        <_>
          <internalNodes>
            0 -1 704 -5.8348616585135460e-04</internalNodes>
          <leafValues>
            4.3609866499900818e-01 -9.7821250557899475e-02</leafValues></_>
        <_>
          <internalNodes>
            0 -1 602 -4.9482315080240369e-04</internalNodes>
          <leafValues>
            3.1655073165893555e-01 -1.3521185517311096e-01</leafValues></_>
        <_>
          <internalNodes>
            0 -1 14 1.3708917424082756e-02</internalNodes>
          <leafValues>
            7.9199030995368958e-02 -5.4458695650100708e-01</leafValues></_>
        <_>
          <internalNodes>
            0 -1 355 -3.0541833257302642e-04</internalNodes>
          <leafValues>
            3.5826823115348816e-01 -1.1782220751047134e-01</leafValues></_>
        <_>
          <internalNodes>
            0 -1 650 -9.9442358987289481e-06</internalNodes>
          <leafValues>
            2.3708108067512512e-01 -1.5964753925800323e-01</leafValues></_>
        <_>
          <internalNodes>
            0 -1 36 3.1569581478834152e-02</internalNodes>
          <leafValues>
            6.9343015551567078e-02 -5.7020914554595947e-01</leafValues></_></weakClassifiers></_>
    <!-- stage 12 -->
    <_>
      <maxWeakCount>39</maxWeakCount>
      <stageThreshold>-4.6359857916831970e-01</stageThreshold>
      <weakClassifiers>
        <_>
          <internalNodes>
            0 -1 747 -4.9790777266025543e-02</internalNodes>
          <leafValues>
            -3.3962264657020569e-01 7.3049026727676392e-01</leafValues></_>
        <_>
          <internalNodes>
            0 -1 242 6.5459841862320900e-03</internalNodes>
          <leafValues>
            -8.9563488960266113e-02 3.9625003933906555e-01</leafValues></_>
        <_>
          <internalNodes>
            0 -1 603 -2.9422948136925697e-03</internalNodes>
          <leafValues>
            3.2848012447357178e-01 -1.5656138956546783e-01</leafValues></_>
        <_>
          <internalNodes>
            0 -1 248 1.0201729310210794e-05</internalNodes>
          <leafValues>
            -1.7194326221942902e-01 3.0771774053573608e-01</leafValues></_>
        <_>
          <internalNodes>
            0 -1 248 -1.0737881893874146e-05</internalNodes>
          <leafValues>
            3.0232885479927063e-01 -2.1323798596858978e-01</leafValues></_>
        <_>
          <internalNodes>
            0 -1 309 2.2627818398177624e-03</internalNodes>
          <leafValues>
            1.0909008979797363e-01 -5.2211028337478638e-01</leafValues></_>
        <_>
          <internalNodes>
            0 -1 361 -1.2865272583439946e-03</internalNodes>
          <leafValues>
            5.1600974798202515e-01 -9.8119817674160004e-02</leafValues></_>
        <_>
          <internalNodes>
            0 -1 361 9.5178559422492981e-04</internalNodes>
          <leafValues>
            -1.4590069651603699e-01 4.2231482267379761e-01</leafValues></_>
        <_>
          <internalNodes>
            0 -1 681 -1.1078536044806242e-03</internalNodes>
          <leafValues>
            7.0917207002639771e-01 -6.3124209642410278e-02</leafValues></_>
        <_>
          <internalNodes>
            0 -1 63 -9.4389412552118301e-03</internalNodes>
          <leafValues>
            -4.9609836935997009e-01 9.9652796983718872e-02</leafValues></_>
        <_>
          <internalNodes>
            0 -1 700 -6.5503298537805676e-04</internalNodes>
          <leafValues>
            5.2100032567977905e-01 -9.5726333558559418e-02</leafValues></_>
        <_>
          <internalNodes>
            0 -1 496 1.8746125278994441e-03</internalNodes>
          <leafValues>
            -7.0128858089447021e-02 6.8018084764480591e-01</leafValues></_>
        <_>
          <internalNodes>
            0 -1 496 -1.0244232835248113e-03</internalNodes>
          <leafValues>
            4.0139731764793396e-01 -1.1350314319133759e-01</leafValues></_>
        <_>
          <internalNodes>
            0 -1 735 1.0293311206623912e-03</internalNodes>
          <leafValues>
            -7.2493821382522583e-02 5.9335595369338989e-01</leafValues></_>
        <_>
          <internalNodes>
            0 -1 544 -9.9442358987289481e-06</internalNodes>
          <leafValues>
            2.8223660588264465e-01 -1.5410329401493073e-01</leafValues></_>
        <_>
          <internalNodes>
            0 -1 544 1.1189084034413099e-05</internalNodes>
          <leafValues>
            -2.4284937977790833e-01 2.8303819894790649e-01</leafValues></_>
        <_>
          <internalNodes>
            0 -1 125 -1.9431777764111757e-03</internalNodes>
          <leafValues>
            -4.8365300893783569e-01 1.0023842751979828e-01</leafValues></_>
        <_>
          <internalNodes>
            0 -1 238 -1.5047895722091198e-03</internalNodes>
          <leafValues>
            7.8312093019485474e-01 -6.1866275966167450e-02</leafValues></_>
        <_>
          <internalNodes>
            0 -1 238 7.8317784937098622e-04</internalNodes>
          <leafValues>
            -7.0752985775470734e-02 5.2770793437957764e-01</leafValues></_>
        <_>
          <internalNodes>
            0 -1 596 1.0319134162273258e-05</internalNodes>
          <leafValues>
            -1.4859110116958618e-01 2.8090170025825500e-01</leafValues></_>
        <_>
          <internalNodes>
            0 -1 596 -1.1104524674010463e-05</internalNodes>
          <leafValues>
            2.8224653005599976e-01 -2.4366581439971924e-01</leafValues></_>
        <_>
          <internalNodes>
            0 -1 479 -7.3035503737628460e-04</internalNodes>
          <leafValues>
            5.1575320959091187e-01 -7.5948446989059448e-02</leafValues></_>
        <_>
          <internalNodes>
            0 -1 140 2.7545746415853500e-03</internalNodes>
          <leafValues>
            9.1523297131061554e-02 -5.0174516439437866e-01</leafValues></_>
        <_>
          <internalNodes>
            0 -1 106 -5.2959909662604332e-03</internalNodes>
          <leafValues>
            1.5715803205966949e-01 -2.6386663317680359e-01</leafValues></_>
        <_>
          <internalNodes>
            0 -1 210 -1.0599826928228140e-03</internalNodes>
          <leafValues>
            -4.6120411157608032e-01 9.9435128271579742e-02</leafValues></_>
        <_>
          <internalNodes>
            0 -1 530 -8.9183577802032232e-04</internalNodes>
          <leafValues>
            4.0638133883476257e-01 -1.2137231230735779e-01</leafValues></_>
        <_>
          <internalNodes>
            0 -1 505 -8.7071122834458947e-04</internalNodes>
          <leafValues>
            5.9132939577102661e-01 -7.4460648000240326e-02</leafValues></_>
        <_>
          <internalNodes>
            0 -1 644 -1.7868469003587961e-03</internalNodes>
          <leafValues>
            6.4181989431381226e-01 -6.1805684119462967e-02</leafValues></_>
        <_>
          <internalNodes>
            0 -1 137 1.0276287866872735e-05</internalNodes>
          <leafValues>
            -1.5700878202915192e-01 2.6205721497535706e-01</leafValues></_>
        <_>
          <internalNodes>
            0 -1 213 -1.4822761714458466e-01</internalNodes>
          <leafValues>
            2.9599919915199280e-01 -1.4580196142196655e-01</leafValues></_>
        <_>
          <internalNodes>
            0 -1 597 9.1904576402157545e-04</internalNodes>
          <leafValues>
            -6.9774009287357330e-02 6.3639098405838013e-01</leafValues></_>
        <_>
          <internalNodes>
            0 -1 163 -9.7050871700048447e-03</internalNodes>
          <leafValues>
            2.8920269012451172e-01 -1.3797226548194885e-01</leafValues></_>
        <_>
          <internalNodes>
            0 -1 596 1.0319134162273258e-05</internalNodes>
          <leafValues>
            -1.5432429313659668e-01 2.5986853241920471e-01</leafValues></_>
        <_>
          <internalNodes>
            0 -1 324 -2.7253217995166779e-03</internalNodes>
          <leafValues>
            5.3270506858825684e-01 -7.3634840548038483e-02</leafValues></_>
        <_>
          <internalNodes>
            0 -1 422 1.0601961548672989e-05</internalNodes>
          <leafValues>
            -1.4604562520980835e-01 2.7146917581558228e-01</leafValues></_>
        <_>
          <internalNodes>
            0 -1 681 1.3857202138751745e-03</internalNodes>
          <leafValues>
            -5.5245075374841690e-02 7.2166508436203003e-01</leafValues></_>
        <_>
          <internalNodes>
            0 -1 508 -1.0828861377376597e-05</internalNodes>
          <leafValues>
            2.4198523163795471e-01 -1.6173602640628815e-01</leafValues></_>
        <_>
          <internalNodes>
            0 -1 722 -3.6396933719515800e-03</internalNodes>
          <leafValues>
            3.6209464073181152e-01 -1.1175543069839478e-01</leafValues></_>
        <_>
          <internalNodes>
            0 -1 612 8.5631140973418951e-04</internalNodes>
          <leafValues>
            1.0433517396450043e-01 -3.9703515172004700e-01</leafValues></_></weakClassifiers></_>
    <!-- stage 13 -->
    <_>
      <maxWeakCount>30</maxWeakCount>
      <stageThreshold>-4.4824925065040588e-01</stageThreshold>
      <weakClassifiers>
        <_>
          <internalNodes>
            0 -1 347 -1.3194457627832890e-02</internalNodes>
          <leafValues>
            1.3157895207405090e-01 7.4773412942886353e-01</leafValues></_>
        <_>
          <internalNodes>
            0 -1 724 7.4386061169207096e-04</internalNodes>
          <leafValues>
            9.2946670949459076e-02 7.3889899253845215e-01</leafValues></_>
        <_>
          <internalNodes>
            0 -1 724 -2.9826158424839377e-04</internalNodes>
          <leafValues>
            4.7064217925071716e-01 -1.3002376258373260e-01</leafValues></_>
        <_>
          <internalNodes>
            0 -1 357 7.0053082890808582e-04</internalNodes>
          <leafValues>
            -8.9236959815025330e-02 6.5064555406570435e-01</leafValues></_>
        <_>
          <internalNodes>
            0 -1 357 -9.2291733017191291e-04</internalNodes>
          <leafValues>
            8.0403673648834229e-01 -1.0277557373046875e-01</leafValues></_>
        <_>
          <internalNodes>
            0 -1 636 -1.0276287866872735e-05</internalNodes>
          <leafValues>
            3.3105844259262085e-01 -1.8511150777339935e-01</leafValues></_>
        <_>
          <internalNodes>
            0 -1 636 1.1612687558226753e-05</internalNodes>
          <leafValues>
            -1.8464332818984985e-01 3.8517802953720093e-01</leafValues></_>
        <_>
          <internalNodes>
            0 -1 463 -1.7732195556163788e-03</internalNodes>
          <leafValues>
            7.5711166858673096e-01 -7.1616545319557190e-02</leafValues></_>
        <_>
          <internalNodes>
            0 -1 474 7.4905343353748322e-04</internalNodes>
          <leafValues>
            -8.4037624299526215e-02 6.3489037752151489e-01</leafValues></_>
        <_>
          <internalNodes>
            0 -1 474 -1.0404914974060375e-05</internalNodes>
          <leafValues>
            3.1251749396324158e-01 -2.1904341876506805e-01</leafValues></_>
        <_>
          <internalNodes>
            0 -1 474 9.7904494396061637e-06</internalNodes>
          <leafValues>
            -2.1999020874500275e-01 3.1842935085296631e-01</leafValues></_>
        <_>
          <internalNodes>
            0 -1 234 7.8691233647987247e-04</internalNodes>
          <leafValues>
            -8.5589490830898285e-02 6.8090903759002686e-01</leafValues></_>
        <_>
          <internalNodes>
            0 -1 323 9.6371117979288101e-04</internalNodes>
          <leafValues>
            -6.3747443258762360e-02 7.6989597082138062e-01</leafValues></_>
        <_>
          <internalNodes>
            0 -1 464 3.1170104630291462e-03</internalNodes>
          <leafValues>
            -6.7191012203693390e-02 7.0553797483444214e-01</leafValues></_>
        <_>
          <internalNodes>
            0 -1 648 -8.7612465722486377e-04</internalNodes>
          <leafValues>
            7.2083657979965210e-01 -6.5488785505294800e-02</leafValues></_>
        <_>
          <internalNodes>
            0 -1 203 1.0547683814365882e-05</internalNodes>
          <leafValues>
            -1.8845097720623016e-01 2.8102520108222961e-01</leafValues></_>
        <_>
          <internalNodes>
            0 -1 161 -1.3576133642345667e-03</internalNodes>
          <leafValues>
            6.0072523355484009e-01 -9.1581784188747406e-02</leafValues></_>
        <_>
          <internalNodes>
            0 -1 647 -1.3986227568238974e-03</internalNodes>
          <leafValues>
            6.1785107851028442e-01 -7.8915148973464966e-02</leafValues></_>
        <_>
          <internalNodes>
            0 -1 317 8.9599043130874634e-03</internalNodes>
          <leafValues>
            -1.0686524957418442e-01 5.2867448329925537e-01</leafValues></_>
        <_>
          <internalNodes>
            0 -1 203 -1.1494464160932694e-05</internalNodes>
          <leafValues>
            3.8084432482719421e-01 -1.5556767582893372e-01</leafValues></_>
        <_>
          <internalNodes>
            0 -1 638 -1.1382359080016613e-03</internalNodes>
          <leafValues>
            -4.9969249963760376e-01 1.1936903744935989e-01</leafValues></_>
        <_>
          <internalNodes>
            0 -1 474 -9.1137597337365150e-04</internalNodes>
          <leafValues>
            6.6269540786743164e-01 -9.0250931680202484e-02</leafValues></_>
        <_>
          <internalNodes>
            0 -1 328 5.9769873041659594e-04</internalNodes>
          <leafValues>
            -8.8069573044776917e-02 5.7023060321807861e-01</leafValues></_>
        <_>
          <internalNodes>
            0 -1 320 1.0201729310210794e-05</internalNodes>
          <leafValues>
            -1.8740752339363098e-01 2.9754823446273804e-01</leafValues></_>
        <_>
          <internalNodes>
            0 -1 320 -1.1897360309376381e-05</internalNodes>
          <leafValues>
            2.9792210459709167e-01 -2.2280628979206085e-01</leafValues></_>
        <_>
          <internalNodes>
            0 -1 705 -1.1794054880738258e-03</internalNodes>
          <leafValues>
            5.4941499233245850e-01 -9.1508395969867706e-02</leafValues></_>
        <_>
          <internalNodes>
            0 -1 513 -3.5256934352219105e-03</internalNodes>
          <leafValues>
            7.0039498805999756e-01 -6.8316400051116943e-02</leafValues></_>
        <_>
          <internalNodes>
            0 -1 345 -1.0855166474357247e-03</internalNodes>
          <leafValues>
            -4.9740940332412720e-01 1.1630898714065552e-01</leafValues></_>
        <_>
          <internalNodes>
            0 -1 505 8.2291878061369061e-04</internalNodes>
          <leafValues>
            -9.3646153807640076e-02 6.5467780828475952e-01</leafValues></_>
        <_>
          <internalNodes>
            0 -1 467 1.3875693548470736e-03</internalNodes>
          <leafValues>
            -7.7689468860626221e-02 5.9346002340316772e-01</leafValues></_></weakClassifiers></_>
    <!-- stage 14 -->
    <_>
      <maxWeakCount>73</maxWeakCount>
      <stageThreshold>-5.0454336404800415e-01</stageThreshold>
      <weakClassifiers>
        <_>
          <internalNodes>
            0 -1 576 1.8261049408465624e-03</internalNodes>
          <leafValues>
            7.5138288736343384e-01 2.2357723116874695e-01</leafValues></_>
        <_>
          <internalNodes>
            0 -1 654 1.0119699873030186e-03</internalNodes>
          <leafValues>
            2.9792690277099609e-01 -2.7582153677940369e-01</leafValues></_>
        <_>
          <internalNodes>
            0 -1 654 -5.6734669487923384e-04</internalNodes>
          <leafValues>
            -3.9326626062393188e-01 1.2883122265338898e-01</leafValues></_>
        <_>
          <internalNodes>
            0 -1 57 -1.7798965796828270e-02</internalNodes>
          <leafValues>
            3.7171873450279236e-01 -1.4288140833377838e-01</leafValues></_>
        <_>
          <internalNodes>
            0 -1 507 -1.8968379124999046e-02</internalNodes>
          <leafValues>
            3.0316722393035889e-01 -1.2632186710834503e-01</leafValues></_>
        <_>
          <internalNodes>
            0 -1 174 -3.9616756839677691e-04</internalNodes>
          <leafValues>
            -3.8474750518798828e-01 8.6674943566322327e-02</leafValues></_>
        <_>
          <internalNodes>
            0 -1 731 -1.5983865596354008e-03</internalNodes>
          <leafValues>
            4.5189151167869568e-01 -7.2316065430641174e-02</leafValues></_>
        <_>
          <internalNodes>
            0 -1 729 2.4404388386756182e-03</internalNodes>
          <leafValues>
            -1.0105873644351959e-01 3.9384967088699341e-01</leafValues></_>
        <_>
          <internalNodes>
            0 -1 310 4.3133827857673168e-03</internalNodes>
          <leafValues>
            7.0215433835983276e-02 -5.0034046173095703e-01</leafValues></_>
        <_>
          <internalNodes>
            0 -1 222 1.9497504830360413e-01</internalNodes>
          <leafValues>
            -9.0679392218589783e-02 4.4632464647293091e-01</leafValues></_>
        <_>
          <internalNodes>
            0 -1 793 2.5371694937348366e-03</internalNodes>
          <leafValues>
            1.0278847813606262e-01 -3.5462611913681030e-01</leafValues></_>
        <_>
          <internalNodes>
            0 -1 95 -9.1820042580366135e-03</internalNodes>
          <leafValues>
            -5.0069206953048706e-01 6.2770433723926544e-02</leafValues></_>
        <_>
          <internalNodes>
            0 -1 449 -1.6704682260751724e-02</internalNodes>
          <leafValues>
            4.0461137890815735e-01 -8.2841262221336365e-02</leafValues></_>
        <_>
          <internalNodes>
            0 -1 460 -1.7350238561630249e-01</internalNodes>
          <leafValues>
            2.4043136835098267e-01 -1.4686788618564606e-01</leafValues></_>
        <_>
          <internalNodes>
            0 -1 40 -1.5315386466681957e-02</internalNodes>
          <leafValues>
            4.1365796327590942e-01 -8.7270796298980713e-02</leafValues></_>
        <_>
          <internalNodes>
            0 -1 174 4.4585607247427106e-04</internalNodes>
          <leafValues>
            1.0012945532798767e-01 -3.2317769527435303e-01</leafValues></_>
        <_>
          <internalNodes>
            0 -1 337 5.7393033057451248e-03</internalNodes>
          <leafValues>
            -8.5141345858573914e-02 3.5531157255172729e-01</leafValues></_>
        <_>
          <internalNodes>
            0 -1 794 -5.2835023961961269e-04</internalNodes>
          <leafValues>
            -3.6507284641265869e-01 8.4781721234321594e-02</leafValues></_>
        <_>
          <internalNodes>
            0 -1 788 1.0740156285464764e-03</internalNodes>
          <leafValues>
            1.0318827629089355e-01 -2.8817573189735413e-01</leafValues></_>
        <_>
          <internalNodes>
            0 -1 421 -2.5230222381651402e-03</internalNodes>
          <leafValues>
            6.3094687461853027e-01 -5.1609668880701065e-02</leafValues></_>
        <_>
          <internalNodes>
            0 -1 237 -1.2912363745272160e-03</internalNodes>
          <leafValues>
            4.0271776914596558e-01 -6.4093299210071564e-02</leafValues></_>
        <_>
          <internalNodes>
            0 -1 190 -2.5108833797276020e-03</internalNodes>
          <leafValues>
            3.3619695901870728e-01 -7.9646944999694824e-02</leafValues></_>
        <_>
          <internalNodes>
            0 -1 151 1.1109656043117866e-05</internalNodes>
          <leafValues>
            -1.4641381800174713e-01 1.8647995591163635e-01</leafValues></_>
        <_>
          <internalNodes>
            0 -1 760 8.5630062967538834e-03</internalNodes>
          <leafValues>
            -4.7437865287065506e-02 5.5813783407211304e-01</leafValues></_>
        <_>
          <internalNodes>
            0 -1 755 -2.5245517463190481e-05</internalNodes>
          <leafValues>
            1.9153198599815369e-01 -1.4496485888957977e-01</leafValues></_>
        <_>
          <internalNodes>
            0 -1 754 -4.4698696001432836e-04</internalNodes>
          <leafValues>
            -4.2348966002464294e-01 6.2300890684127808e-02</leafValues></_>
